{"learner":{"attributes":{"scikit_learn":"{\"_estimator_type\": \"classifier\"}"},"feature_names":["time_of_day","return_5b","return_10b","return_20b","ema_diff","ema9_slope","ema21_slope","price_vs_ema9","price_vs_ema21","atr10","atr_ratio","price_vs_vwap","volatility_10b","volatility_20b","volume_ratio","candle_dir","high_low_range","rsi_14","ut_direction","adx_proxy"],"feature_types":["float","float","float","float","float","float","float","float","float","float","float","float","float","float","float","float","float","float","int","float"],"gradient_booster":{"model":{"cats":{"enc":[],"feature_segments":[],"sorted_idx":[]},"gbtree_model_param":{"num_parallel_tree":"1","num_trees":"200"},"iteration_indptr":[0,1,2,3,4,5,6,7,8,9,10,11,12,13,14,15,16,17,18,19,20,21,22,23,24,25,26,27,28,29,30,31,32,33,34,35,36,37,38,39,40,41,42,43,44,45,46,47,48,49,50,51,52,53,54,55,56,57,58,59,60,61,62,63,64,65,66,67,68,69,70,71,72,73,74,75,76,77,78,79,80,81,82,83,84,85,86,87,88,89,90,91,92,93,94,95,96,97,98,99,100,101,102,103,104,105,106,107,108,109,110,111,112,113,114,115,116,117,118,119,120,121,122,123,124,125,126,127,128,129,130,131,132,133,134,135,136,137,138,139,140,141,142,143,144,145,146,147,148,149,150,151,152,153,154,155,156,157,158,159,160,161,162,163,164,165,166,167,168,169,170,171,172,173,174,175,176,177,178,179,180,181,182,183,184,185,186,187,188,189,190,191,192,193,194,195,196,197,198,199,200],"tree_info":[0,0,0,0,0,0,0,0,0,0,0,0,0,0,0,0,0,0,0,0,0,0,0,0,0,0,0,0,0,0,0,0,0,0,0,0,0,0,0,0,0,0,0,0,0,0,0,0,0,0,0,0,0,0,0,0,0,0,0,0,0,0,0,0,0,0,0,0,0,0,0,0,0,0,0,0,0,0,0,0,0,0,0,0,0,0,0,0,0,0,0,0,0,0,0,0,0,0,0,0,0,0,0,0,0,0,0,0,0,0,0,0,0,0,0,0,0,0,0,0,0,0,0,0,0,0,0,0,0,0,0,0,0,0,0,0,0,0,0,0,0,0,0,0,0,0,0,0,0,0,0,0,0,0,0,0,0,0,0,0,0,0,0,0,0,0,0,0,0,0,0,0,0,0,0,0,0,0,0,0,0,0,0,0,0,0,0,0,0,0,0,0,0,0,0,0,0,0,0,0],"trees":[{"base_weights":[2.8160501E-8,-2.8689262E-1,3.314788E-1,-9.344263E-2,-2.4582551E-1,4.7356266E-1,5.798679E-2,-4.9715176E-1,-4.5029588E-2,7.40404E-1,9.449675E-2,-2.484664E-1,6.6861963E-1,-3.4850758E-2,-2.8842113E-3,2.9312802E-2,-8.23482E-3,-3.5595655E-2,4.1576143E-2,-2.388442E-3,5.521479E-2,-2.1363713E-2,3.950708E-2,6.4083606E-2,-2.5771046E-2],"categories":[],"categories_nodes":[],"categories_segments":[],"categories_sizes":[],"default_left":[0,0,0,0,0,0,0,0,0,0,0,0,0,0,0,0,0,0,0,0,0,0,0,0,0],"id":0,"left_children":[1,3,5,-1,7,9,11,13,15,17,19,21,23,-1,-1,-1,-1,-1,-1,-1,-1,-1,-1,-1,-1],"loss_changes":[1.07984726E2,3.9084824E1,2.0443897E1,0E0,2.9976006E1,3.4984596E1,3.4084484E1,2.3139107E1,2.5142056E1,2.7487373E1,2.0785543E1,2.2885944E1,4.482243E1,0E0,0E0,0E0,0E0,0E0,0E0,0E0,0E0,0E0,0E0,0E0,0E0],"parents":[2147483647,0,0,1,1,2,2,4,4,5,5,6,6,7,7,8,8,9,9,10,10,11,11,12,12],"right_children":[2,4,6,-1,8,10,12,14,16,18,20,22,24,-1,-1,-1,-1,-1,-1,-1,-1,-1,-1,-1,-1],"split_conditions":[6.025641E-1,-1.8714393E-3,-1.7153639E-4,-9.344263E-2,-3.607008E-4,8.5897434E-1,7.807118E-4,3.974359E-1,5.4188305E-1,-9.01954E-3,-3.1630396E-5,1.3841584E0,1.1225693E-3,-3.4850758E-2,-2.8842113E-3,2.9312802E-2,-8.23482E-3,-3.5595655E-2,4.1576143E-2,-2.388442E-3,5.521479E-2,-2.1363713E-2,3.950708E-2,6.4083606E-2,-2.5771046E-2],"split_indices":[0,11,4,0,1,0,13,0,19,3,5,10,12,0,0,0,0,0,0,0,0,0,0,0,0],"split_type":[0,0,0,0,0,0,0,0,0,0,0,0,0,0,0,0,0,0,0,0,0,0,0,0,0],"sum_hessian":[1.1335E3,6.076862E2,5.258138E2,1.425E1,5.934362E2,3.455586E2,1.802552E2,2.6290067E2,3.3053555E2,2.0223978E2,1.4331883E2,1.2041609E2,5.9839115E1,1.8031155E2,8.258911E1,5.2050625E1,2.7848492E2,1.1537274E1,1.907025E2,1.26455795E2,1.6863037E1,1.0323215E2,1.7183947E1,3.9371532E1,2.046758E1],"tree_param":{"num_deleted":"0","num_feature":"20","num_nodes":"25","size_leaf_vector":"1"}},{"base_weights":[5.1400375E-6,-2.7277705E-1,3.1522432E-1,-1.1514848E0,-2.0524086E-1,7.765634E-1,2.374922E-1,9.674705E-1,-1.3255041E0,-4.6877337E-1,-2.302419E-2,9.442517E-1,-2.169337E-1,2.9710504E-1,-4.1941386E-1,6.120981E-2,1.2769601E-2,-7.305478E-2,6.1744936E-2,-3.4087416E-2,-6.7930255E-4,-3.704722E-2,2.4301072E-3,-4.2204667E-2,5.3062644E-2,3.530666E-2,-7.990455E-2,-1.327609E-2,1.8192826E-2,8.298385E-3,-7.942475E-2],"categories":[],"categories_nodes":[],"categories_segments":[],"categories_sizes":[],"default_left":[0,0,0,0,0,0,0,0,0,0,0,0,0,0,0,0,0,0,0,0,0,0,0,0,0,0,0,0,0,0,0],"id":1,"left_children":[1,3,5,7,9,11,13,15,17,19,21,23,25,27,29,-1,-1,-1,-1,-1,-1,-1,-1,-1,-1,-1,-1,-1,-1,-1,-1],"loss_changes":[9.761467E1,3.5879845E1,1.8701782E1,1.72191E1,2.7186054E1,1.2783115E1,1.7830883E1,3.9264536E-1,1.5816536E1,2.2430363E1,1.7308329E1,1.4451187E1,1.6065647E1,1.5686893E1,2.6291637E1,0E0,0E0,0E0,0E0,0E0,0E0,0E0,0E0,0E0,0E0,0E0,0E0,0E0,0E0,0E0,0E0],"parents":[2147483647,0,0,1,1,2,2,3,3,4,4,5,5,6,6,7,7,8,8,9,9,10,10,11,11,12,12,13,13,14,14],"right_children":[2,4,6,8,10,12,14,16,18,20,22,24,26,28,30,-1,-1,-1,-1,-1,-1,-1,-1,-1,-1,-1,-1,-1,-1,-1,-1],"split_conditions":[6.025641E-1,-1.2070133E-3,7.009996E-1,2.4846444E-4,-3.4266526E-5,9.358974E-1,1.2749494E-3,1.1647727E0,5.5041724E-5,3.974359E-1,-5.425746E-3,-3.2926574E-3,-5.8094948E-3,5.8592675E-4,8.4615386E-1,6.120981E-2,1.2769601E-2,-7.305478E-2,6.1744936E-2,-3.4087416E-2,-6.7930255E-4,-3.704722E-2,2.4301072E-3,-4.2204667E-2,5.3062644E-2,3.530666E-2,-7.990455E-2,-1.327609E-2,1.8192826E-2,8.298385E-3,-7.942475E-2],"split_indices":[0,11,19,12,15,0,12,10,6,0,3,4,3,9,0,0,0,0,0,0,0,0,0,0,0,0,0,0,0,0,0],"split_type":[0,0,0,0,0,0,0,0,0,0,0,0,0,0,0,0,0,0,0,0,0,0,0,0,0,0,0,0,0,0,0],"sum_hessian":[1.1332368E3,6.0758435E2,5.2565247E2,4.221953E1,5.653648E2,7.450082E1,4.5115164E2,2.8581016E0,3.9361427E1,2.3047118E2,3.3489365E2,6.3784466E1,1.0716351E1,4.1411896E2,3.7032696E1,1.5721188E0,1.285983E0,3.778955E1,1.571876E0,1.5667003E2,7.380115E1,2.9533266E1,3.0536038E2,3.5351892E0,6.0249275E1,6.7163568E0,3.9999943E0,4.3605392E1,3.7051355E2,2.5248379E1,1.1784318E1],"tree_param":{"num_deleted":"0","num_feature":"20","num_nodes":"31","size_leaf_vector":"1"}},{"base_weights":[-9.212775E-5,-2.592529E-1,2.9939952E-1,-8.623746E-2,-2.21448E-1,4.80233E-1,1.1215998E-1,-3.7976196E-1,6.2139533E-2,7.114444E-1,1.2563066E-2,-1.5811841E0,2.2361174E-1,-2.7496686E-2,-1.4737493E-4,-2.1472857E-3,4.166506E-2,4.6099447E-2,9.075508E-3,-1.1438171E-2,4.726323E-2,-3.0402716E-3,-9.226611E-2,1.6715623E-2,-6.0658563E-2],"categories":[],"categories_nodes":[],"categories_segments":[],"categories_sizes":[],"default_left":[0,0,0,0,0,0,0,0,0,0,0,0,0,0,0,0,0,0,0,0,0,0,0,0,0],"id":2,"left_children":[1,3,5,-1,7,9,11,13,15,17,19,21,23,-1,-1,-1,-1,-1,-1,-1,-1,-1,-1,-1,-1],"loss_changes":[8.807893E1,3.3323025E1,1.777084E1,0E0,2.6701118E1,2.8915401E1,4.9411377E1,2.4459461E1,1.7356651E1,1.9802437E1,2.0364407E1,6.383957E0,3.933627E1,0E0,0E0,0E0,0E0,0E0,0E0,0E0,0E0,0E0,0E0,0E0,0E0],"parents":[2147483647,0,0,1,1,2,2,4,4,5,5,6,6,7,7,8,8,9,9,10,10,11,11,12,12],"right_children":[2,4,6,-1,8,10,12,14,16,18,20,22,24,-1,-1,-1,-1,-1,-1,-1,-1,-1,-1,-1,-1],"split_conditions":[6.025641E-1,-1.8714393E-3,8.2051283E-1,-8.623746E-2,-8.8110384E-5,-1.0604845E-4,3.9698608E-4,3.974359E-1,1.100768E-3,1.6046901E-3,7.944099E-4,-4.406425E-4,1.291663E-3,-2.7496686E-2,-1.4737493E-4,-2.1472857E-3,4.166506E-2,4.6099447E-2,9.075508E-3,-1.1438171E-2,4.726323E-2,-3.0402716E-3,-9.226611E-2,1.6715623E-2,-6.0658563E-2],"split_indices":[0,11,0,0,1,4,13,0,12,16,13,4,12,0,0,0,0,0,0,0,0,0,0,0,0],"split_type":[0,0,0,0,0,0,0,0,0,0,0,0,0,0,0,0,0,0,0,0,0,0,0,0,0],"sum_hessian":[1.1327965E3,6.0736035E2,5.254362E2,1.4151697E1,5.932087E2,2.6649448E2,2.589417E2,3.804703E2,2.1273834E2,1.7798114E2,8.851335E1,1.5176107E1,2.4376561E2,2.617865E2,1.1868383E2,1.8805643E2,2.4681908E1,1.2684528E2,5.113585E1,7.091865E1,1.7594706E1,2.428406E0,1.2747702E1,2.2704002E2,1.6725578E1],"tree_param":{"num_deleted":"0","num_feature":"20","num_nodes":"25","size_leaf_vector":"1"}},{"base_weights":[-1.9934391E-4,-2.4656567E-1,2.8457335E-1,-6.4327425E-1,-1.173626E-1,7.160068E-1,2.1199594E-1,-9.44424E-1,-1.4993472E-1,-1.8158421E-1,1.3657118E0,8.7455285E-1,-2.204609E-1,2.6686457E-1,-3.9309907E-1,-5.040598E-2,6.594982E-2,5.9064485E-2,-1.9667184E-2,1.3907433E-2,-1.7057318E-2,8.219621E-2,-5.800107E-2,-4.1584343E-2,4.9344026E-2,3.306074E-2,-7.6911636E-2,-1.2696015E-2,1.6433368E-2,7.2367787E-3,-7.35657E-2],"categories":[],"categories_nodes":[],"categories_segments":[],"categories_sizes":[],"default_left":[0,0,0,0,0,0,0,0,0,0,0,0,0,0,0,0,0,0,0,0,0,0,0,0,0,0,0,0,0,0,0],"id":3,"left_children":[1,3,5,7,9,11,13,15,17,19,21,23,25,27,29,-1,-1,-1,-1,-1,-1,-1,-1,-1,-1,-1,-1,-1,-1,-1,-1],"loss_changes":[7.956151E1,3.1088818E1,1.6318909E1,2.2017498E1,4.404785E1,1.1376564E1,1.5101282E1,1.4654808E1,1.9169014E1,3.2493195E1,1.5401661E1,1.32057495E1,1.4616433E1,1.3431963E1,2.2224388E1,0E0,0E0,0E0,0E0,0E0,0E0,0E0,0E0,0E0,0E0,0E0,0E0,0E0,0E0,0E0,0E0],"parents":[2147483647,0,0,1,1,2,2,3,3,4,4,5,5,6,6,7,7,8,8,9,9,10,10,11,11,12,12,13,13,14,14],"right_children":[2,4,6,8,10,12,14,16,18,20,22,24,26,28,30,-1,-1,-1,-1,-1,-1,-1,-1,-1,-1,-1,-1,-1,-1,-1,-1],"split_conditions":[6.025641E-1,-5.934465E-4,7.009996E-1,-1.9270582E-4,1.200383E-3,9.358974E-1,1.2749494E-3,-2.1759259E-4,6.301747E-4,7.221417E-2,2.6229569E-3,-3.2926574E-3,-5.8094948E-3,5.8592675E-4,8.4615386E-1,-5.040598E-2,6.594982E-2,5.9064485E-2,-1.9667184E-2,1.3907433E-2,-1.7057318E-2,8.219621E-2,-5.800107E-2,-4.1584343E-2,4.9344026E-2,3.306074E-2,-7.6911636E-2,-1.2696015E-2,1.6433368E-2,7.2367787E-3,-7.35657E-2],"split_indices":[0,7,19,11,12,0,12,8,13,14,9,4,3,9,0,0,0,0,0,0,0,0,0,0,0,0,0,0,0,0,0],"split_type":[0,0,0,0,0,0,0,0,0,0,0,0,0,0,0,0,0,0,0,0,0,0,0,0,0,0,0,0,0,0,0],"sum_hessian":[1.1320266E3,6.070133E2,5.2501324E2,1.4815019E2,4.5886313E2,7.432513E1,4.506881E2,9.142637E1,5.6723827E1,4.4065884E2,1.8204298E1,6.362021E1,1.0704921E1,4.1373093E2,3.6957207E1,8.9463356E1,1.9630129E0,8.172827E0,4.8551003E1,1.1334481E2,3.2731403E2,1.6712524E1,1.4917741E0,3.5340722E0,6.0086136E1,6.7122316E0,3.9926896E0,4.356014E1,3.7017078E2,2.5235172E1,1.1722033E1],"tree_param":{"num_deleted":"0","num_feature":"20","num_nodes":"31","size_leaf_vector":"1"}},{"base_weights":[-2.1295785E-4,-2.3428372E-1,2.7041736E-1,-8.115543E-2,-1.9896059E-1,4.4118142E-1,9.37234E-2,-3.458989E-1,6.398936E-2,6.587795E-1,2.0168372E-3,-1.515521E0,1.9962095E-1,-2.553974E-2,9.3248487E-4,-1.6382845E-3,3.874514E-2,4.3097887E-2,7.433726E-3,-1.5973102E-2,3.315769E-2,-3.5151166E-3,-8.83129E-2,1.5028303E-2,-5.590825E-2],"categories":[],"categories_nodes":[],"categories_segments":[],"categories_sizes":[],"default_left":[0,0,0,0,0,0,0,0,0,0,0,0,0,0,0,0,0,0,0,0,0,0,0,0,0],"id":4,"left_children":[1,3,5,-1,7,9,11,13,15,17,19,21,23,-1,-1,-1,-1,-1,-1,-1,-1,-1,-1,-1,-1],"loss_changes":[7.177888E1,2.9484291E1,1.5815044E1,0E0,2.2959837E1,2.5510967E1,4.453266E1,2.2912548E1,1.4722111E1,1.8373695E1,1.9225035E1,5.7249527E0,3.284746E1,0E0,0E0,0E0,0E0,0E0,0E0,0E0,0E0,0E0,0E0,0E0,0E0],"parents":[2147483647,0,0,1,1,2,2,4,4,5,5,6,6,7,7,8,8,9,9,10,10,11,11,12,12],"right_children":[2,4,6,-1,8,10,12,14,16,18,20,22,24,-1,-1,-1,-1,-1,-1,-1,-1,-1,-1,-1,-1],"split_conditions":[6.025641E-1,-1.8714393E-3,8.2051283E-1,-8.115543E-2,-8.8110384E-5,-1.0604845E-4,3.9698608E-4,3.974359E-1,1.100768E-3,1.6046901E-3,2.2286669E-4,-4.406425E-4,1.291663E-3,-2.553974E-2,9.3248487E-4,-1.6382845E-3,3.874514E-2,4.3097887E-2,7.433726E-3,-1.5973102E-2,3.315769E-2,-3.5151166E-3,-8.83129E-2,1.5028303E-2,-5.590825E-2],"split_indices":[0,11,0,0,1,4,13,0,12,16,4,4,12,0,0,0,0,0,0,0,0,0,0,0,0],"split_type":[0,0,0,0,0,0,0,0,0,0,0,0,0,0,0,0,0,0,0,0,0,0,0,0,0],"sum_hessian":[1.1311124E3,6.06596E2,5.245164E2,1.3930496E1,5.926655E2,2.6597284E2,2.585436E2,3.8000217E2,2.1266338E2,1.7751654E2,8.84563E1,1.5141317E1,2.434023E2,2.6137396E2,1.1862819E2,1.8802689E2,2.463648E1,1.26457794E2,5.105874E1,5.986409E1,2.8592207E1,2.4278512E0,1.2713467E1,2.268008E2,1.660149E1],"tree_param":{"num_deleted":"0","num_feature":"20","num_nodes":"25","size_leaf_vector":"1"}},{"base_weights":[-3.2689702E-4,-2.2290292E-1,2.5713775E-1,-1.003554E0,-1.637035E-1,8.2131565E-1,2.0704854E-1,9.766623E-1,-1.1704959E0,-4.0478498E-1,2.688214E-3,1.4080541E-2,1.1626883E0,3.562875E-1,-2.4087965E-2,6.0856283E-2,1.3924593E-2,-6.4836875E-2,5.8163267E-2,-2.9949252E-2,4.3501324E-4,-3.1781066E-2,3.7228425E-3,-2.2074899E-2,6.712997E-2,-4.068933E-2,6.6267215E-2,2.9321736E-2,6.4032496E-4,4.0459805E-3,-7.661182E-2],"categories":[],"categories_nodes":[],"categories_segments":[],"categories_sizes":[],"default_left":[0,0,0,0,0,0,0,0,0,0,0,0,0,0,0,0,0,0,0,0,0,0,0,0,0,0,0,0,0,0,0],"id":5,"left_children":[1,3,5,7,9,11,13,15,17,19,21,23,25,27,29,-1,-1,-1,-1,-1,-1,-1,-1,-1,-1,-1,-1,-1,-1,-1,-1],"loss_changes":[6.4859955E1,2.7889671E1,1.4659973E1,1.5224079E1,2.2683487E1,1.1683006E1,1.6680834E1,3.0854702E-1,1.3215836E1,1.854684E1,1.54186735E1,8.842406E0,1.0666931E1,2.3214584E1,3.0303885E1,0E0,0E0,0E0,0E0,0E0,0E0,0E0,0E0,0E0,0E0,0E0,0E0,0E0,0E0,0E0,0E0],"parents":[2147483647,0,0,1,1,2,2,3,3,4,4,5,5,6,6,7,7,8,8,9,9,10,10,11,11,12,12,13,13,14,14],"right_children":[2,4,6,8,10,12,14,16,18,20,22,24,26,28,30,-1,-1,-1,-1,-1,-1,-1,-1,-1,-1,-1,-1,-1,-1,-1,-1],"split_conditions":[6.025641E-1,-1.2070133E-3,-5.1188036E-3,2.4846444E-4,-3.4266526E-5,1.5217391E1,8.5897434E-1,1.1647727E0,5.5041724E-5,3.974359E-1,-1.2729017E-3,-3.6240378E-3,7.8331743E-4,-1.7153639E-4,1.2352485E-3,6.0856283E-2,1.3924593E-2,-6.4836875E-2,5.8163267E-2,-2.9949252E-2,4.3501324E-4,-3.1781066E-2,3.7228425E-3,-2.2074899E-2,6.712997E-2,-4.068933E-2,6.6267215E-2,2.9321736E-2,6.4032496E-4,4.0459805E-3,-7.661182E-2],"split_indices":[0,11,2,12,15,17,0,10,6,0,4,11,12,4,12,0,0,0,0,0,0,0,0,0,0,0,0,0,0,0,0],"split_type":[0,0,0,0,0,0,0,0,0,0,0,0,0,0,0,0,0,0,0,0,0,0,0,0,0,0,0,0,0,0,0],"sum_hessian":[1.1298285E3,6.0604333E2,5.2378516E2,4.1594383E1,5.64449E2,4.145552E1,4.8232962E2,2.8568585E0,3.8737526E1,2.2990773E2,3.3454123E2,1.2630276E1,2.8825245E1,2.9276025E2,1.8956935E2,1.5720923E0,1.2847661E0,3.717116E1,1.5663657E0,1.5613008E2,7.377763E1,3.3018497E1,3.0152274E2,9.902251E0,2.7280242E0,1.8874347E0,2.693781E1,1.7487746E2,1.1788282E2,1.7811417E2,1.1455178E1],"tree_param":{"num_deleted":"0","num_feature":"20","num_nodes":"31","size_leaf_vector":"1"}},{"base_weights":[-2.8393572E-4,-2.1198365E-1,2.4466148E-1,-4.4012773E-1,-2.3721538E-2,6.376441E-1,1.7889106E-1,-7.436347E-1,-1.8133518E-1,5.707665E-1,-1.3558908E-1,1.4793301E0,4.698795E-1,2.2750695E-1,-3.6000285E-1,-5.1257826E-2,-3.5939272E-3,-2.4702547E-2,2.1562643E-2,-2.9271198E-2,5.234902E-2,-3.9577357E-2,-2.1441544E-3,1.9859763E-2,7.718827E-2,-1.0879393E-2,3.695384E-2,6.436915E-3,2.651819E-2,4.5276415E-2,-3.6134925E-2],"categories":[],"categories_nodes":[],"categories_segments":[],"categories_sizes":[],"default_left":[0,0,0,0,0,0,0,0,0,0,0,0,0,0,0,0,0,0,0,0,0,0,0,0,0,0,0,0,0,0,0],"id":6,"left_children":[1,3,5,7,9,11,13,15,17,19,21,23,25,27,29,-1,-1,-1,-1,-1,-1,-1,-1,-1,-1,-1,-1,-1,-1,-1,-1],"loss_changes":[5.862316E1,2.60356E1,1.34323845E1,2.139524E1,2.2243439E1,9.860033E0,1.1880758E1,2.3723251E1,2.8809315E1,2.978248E1,1.7073845E1,2.2059631E-1,1.1966588E1,1.23067665E1,1.7937698E1,0E0,0E0,0E0,0E0,0E0,0E0,0E0,0E0,0E0,0E0,0E0,0E0,0E0,0E0,0E0,0E0],"parents":[2147483647,0,0,1,1,2,2,3,3,4,4,5,5,6,6,7,7,8,8,9,9,10,10,11,11,12,12,13,13,14,14],"right_children":[2,4,6,8,10,12,14,16,18,20,22,24,26,28,30,-1,-1,-1,-1,-1,-1,-1,-1,-1,-1,-1,-1,-1,-1,-1,-1],"split_conditions":[6.025641E-1,-3.607008E-4,7.009996E-1,-1.1860764E-3,5.4188305E-1,5.82112E-4,1.2749494E-3,-1.4301555E-4,3.974359E-1,-1.4143295E-3,-5.4078904E-4,6.1538464E-1,7.5536175E-4,8.32312E-4,-3.6997693E-3,-5.1257826E-2,-3.5939272E-3,-2.4702547E-2,2.1562643E-2,-2.9271198E-2,5.234902E-2,-3.9577357E-2,-2.1441544E-3,1.9859763E-2,7.718827E-2,-1.0879393E-2,3.695384E-2,6.436915E-3,2.651819E-2,4.5276415E-2,-3.6134925E-2],"split_indices":[0,1,19,2,19,12,12,11,0,4,4,0,13,13,1,0,0,0,0,0,0,0,0,0,0,0,0,0,0,0,0],"split_type":[0,0,0,0,0,0,0,0,0,0,0,0,0,0,0,0,0,0,0,0,0,0,0,0,0,0,0,0,0,0,0],"sum_hessian":[1.1285236E3,6.054146E2,5.2310895E2,2.7311017E2,3.323044E2,7.375039E1,4.4935855E2,1.2483388E2,1.4827629E2,5.1978325E1,2.8032608E2,1.0957586E1,6.27928E1,4.1270456E2,3.6653984E1,8.759725E1,3.7236626E1,9.829292E1,4.9983364E1,1.5096499E1,3.6881824E1,3.3778927E1,2.4654716E2,1.018416E0,9.93917E0,1.7723307E1,4.5069492E1,3.1228595E2,1.0041862E2,7.8314676E0,2.8822515E1],"tree_param":{"num_deleted":"0","num_feature":"20","num_nodes":"31","size_leaf_vector":"1"}},{"base_weights":[-1.9625339E-4,-2.0178987E-1,2.3299524E-1,-7.484947E-2,-1.6994365E-1,3.8991594E-1,7.091676E-2,-3.0305088E-1,6.760707E-2,5.870191E-1,-5.636217E-3,-1.4627013E0,1.7175953E-1,-2.2650048E-2,1.3675458E-3,7.452926E-3,-3.7536114E-2,3.925277E-2,4.6149907E-3,-1.154293E-2,4.346953E-2,-3.999733E-3,-8.513797E-2,1.4469676E-2,-3.8905304E-2],"categories":[],"categories_nodes":[],"categories_segments":[],"categories_sizes":[],"default_left":[0,0,0,0,0,0,0,0,0,0,0,0,0,0,0,0,0,0,0,0,0,0,0,0,0],"id":7,"left_children":[1,3,5,-1,7,9,11,13,15,17,19,21,23,-1,-1,-1,-1,-1,-1,-1,-1,-1,-1,-1,-1],"loss_changes":[5.3084515E1,2.4726639E1,1.328874E1,0E0,1.8746822E1,2.072622E1,4.0272392E1,1.8826153E1,1.4342282E1,1.7308823E1,1.7817095E1,5.1982765E0,2.7456144E1,0E0,0E0,0E0,0E0,0E0,0E0,0E0,0E0,0E0,0E0,0E0,0E0],"parents":[2147483647,0,0,1,1,2,2,4,4,5,5,6,6,7,7,8,8,9,9,10,10,11,11,12,12],"right_children":[2,4,6,-1,8,10,12,14,16,18,20,22,24,-1,-1,-1,-1,-1,-1,-1,-1,-1,-1,-1,-1],"split_conditions":[6.025641E-1,-1.8714393E-3,8.2051283E-1,-7.484947E-2,-8.8110384E-5,-1.0604845E-4,3.9698608E-4,3.974359E-1,6.3900414E1,1.6046901E-3,7.944099E-4,-4.406425E-4,1.200383E-3,-2.2650048E-2,1.3675458E-3,7.452926E-3,-3.7536114E-2,3.925277E-2,4.6149907E-3,-1.154293E-2,4.346953E-2,-3.999733E-3,-8.513797E-2,1.4469676E-2,-3.8905304E-2],"split_indices":[0,11,0,0,1,4,13,0,17,16,13,4,12,0,0,0,0,0,0,0,0,0,0,0,0],"split_type":[0,0,0,0,0,0,0,0,0,0,0,0,0,0,0,0,0,0,0,0,0,0,0,0,0],"sum_hessian":[1.1272194E3,6.046421E2,5.225773E2,1.3406032E1,5.91236E2,2.6479907E2,2.5777817E2,3.7874014E2,2.1249588E2,1.764101E2,8.8388985E1,1.5071152E1,2.4270702E2,2.6025467E2,1.1848547E2,1.9400378E2,1.8492092E1,1.2556109E2,5.0849014E1,7.088113E1,1.750786E1,2.426725E0,1.2644427E1,2.1658043E2,2.612659E1],"tree_param":{"num_deleted":"0","num_feature":"20","num_nodes":"25","size_leaf_vector":"1"}},{"base_weights":[-3.396352E-4,-1.9216108E-1,2.21703E-1,-7.270773E-2,-1.6166744E-1,7.4527794E-1,1.7541495E-1,-3.6750653E-1,-1.1906457E-2,-3.1044707E-2,1.0765684E0,2.2614647E-1,-4.2766854E-1,-2.7248839E-2,-1.4002199E-3,-2.9995397E-2,2.4765858E-3,-2.329473E-2,6.316316E-2,-4.0512443E-2,6.172753E-2,3.619605E-3,2.3561364E-2,2.4983545E-3,-5.1769763E-2],"categories":[],"categories_nodes":[],"categories_segments":[],"categories_sizes":[],"default_left":[0,0,0,0,0,0,0,0,0,0,0,0,0,0,0,0,0,0,0,0,0,0,0,0,0],"id":8,"left_children":[1,3,5,-1,7,9,11,13,15,17,19,21,23,-1,-1,-1,-1,-1,-1,-1,-1,-1,-1,-1,-1],"loss_changes":[4.802378E1,2.304406E1,1.253442E1,0E0,1.8238138E1,1.0871483E1,1.4826889E1,1.4999023E1,1.2441924E1,8.229717E0,9.812904E0,1.6725002E1,1.0995916E1,0E0,0E0,0E0,0E0,0E0,0E0,0E0,0E0,0E0,0E0,0E0,0E0],"parents":[2147483647,0,0,1,1,2,2,4,4,5,5,6,6,7,7,8,8,9,9,10,10,11,11,12,12],"right_children":[2,4,6,-1,8,10,12,14,16,18,20,22,24,-1,-1,-1,-1,-1,-1,-1,-1,-1,-1,-1,-1],"split_conditions":[6.025641E-1,-1.8714393E-3,-5.1188036E-3,-7.270773E-2,-3.4266526E-5,1.5217391E1,2.062682E-3,3.974359E-1,-5.2503967E-3,-3.6240378E-3,7.8331743E-4,1.1225034E0,7.692308E-1,-2.7248839E-2,-1.4002199E-3,-2.9995397E-2,2.4765858E-3,-2.329473E-2,6.316316E-2,-4.0512443E-2,6.172753E-2,3.619605E-3,2.3561364E-2,2.4983545E-3,-5.1769763E-2],"split_indices":[0,11,2,0,15,17,16,0,3,11,12,10,0,0,0,0,0,0,0,0,0,0,0,0,0],"split_type":[0,0,0,0,0,0,0,0,0,0,0,0,0,0,0,0,0,0,0,0,0,0,0,0,0],"sum_hessian":[1.125516E3,6.039239E2,5.2159204E2,1.3146884E1,5.9077704E2,4.1140575E1,4.8045148E2,2.4819342E2,3.425836E2,1.2576346E1,2.8564228E1,4.437483E2,3.6703194E1,1.6259422E2,8.55992E1,3.15799E1,3.110037E2,9.892722E0,2.683624E0,1.8878976E0,2.667633E1,2.7347556E2,1.7027275E2,2.1065104E1,1.5638089E1],"tree_param":{"num_deleted":"0","num_feature":"20","num_nodes":"25","size_leaf_vector":"1"}},{"base_weights":[-4.0833175E-4,-1.8302257E-1,2.1095419E-1,-3.2365415E-1,7.3746435E-2,4.0132135E-1,9.3950614E-2,-7.763328E-1,-1.119525E-1,5.4326856E-1,-1.29026E-1,6.28379E-1,8.5447446E-2,-1.0324956E0,1.821113E-1,-4.8001207E-2,-8.8020595E-4,-1.9757494E-2,2.3241503E-2,-2.027536E-2,4.6248507E-2,-4.362536E-2,2.033728E-3,2.703223E-2,7.605635E-2,5.2574422E-2,-4.5090164E-3,-8.1057064E-2,3.1293796E-3,1.2283965E-2,-5.454087E-2],"categories":[],"categories_nodes":[],"categories_segments":[],"categories_sizes":[],"default_left":[0,0,0,0,0,0,0,0,0,0,0,0,0,0,0,0,0,0,0,0,0,0,0,0,0,0,0,0,0,0,0],"id":9,"left_children":[1,3,5,7,9,11,13,15,17,19,21,23,25,27,29,-1,-1,-1,-1,-1,-1,-1,-1,-1,-1,-1,-1,-1,-1,-1,-1],"loss_changes":[4.3467346E1,2.1840237E1,1.1588993E1,3.734066E1,2.0502876E1,1.4175596E1,3.2423244E1,1.7304054E1,4.3840782E1,2.3886839E1,1.9048344E1,8.2059555E0,1.4368285E1,1.5385582E1,2.4695951E1,0E0,0E0,0E0,0E0,0E0,0E0,0E0,0E0,0E0,0E0,0E0,0E0,0E0,0E0,0E0,0E0],"parents":[2147483647,0,0,1,1,2,2,3,3,4,4,5,5,6,6,7,7,8,8,9,9,10,10,11,11,12,12,13,13,14,14],"right_children":[2,4,6,8,10,12,14,16,18,20,22,24,26,28,30,-1,-1,-1,-1,-1,-1,-1,-1,-1,-1,-1,-1,-1,-1,-1,-1],"split_conditions":[6.025641E-1,0E0,7.692308E-1,-1.2102098E-3,6.856318E-1,-5.320351E-4,3.9698608E-4,-1.9270582E-4,4.8993784E-4,-1.4143295E-3,-3.605236E-5,1.3678009E-3,8.263022E-1,7.485794E-4,1.3439789E-3,-4.8001207E-2,-8.8020595E-4,-1.9757494E-2,2.3241503E-2,-2.027536E-2,4.6248507E-2,-4.362536E-2,2.033728E-3,2.703223E-2,7.605635E-2,5.2574422E-2,-4.5090164E-3,-8.1057064E-2,3.1293796E-3,1.2283965E-2,-5.454087E-2],"split_indices":[0,11,0,2,19,11,13,11,9,4,15,13,19,16,13,0,0,0,0,0,0,0,0,0,0,0,0,0,0,0,0],"split_type":[0,0,0,0,0,0,0,0,0,0,0,0,0,0,0,0,0,0,0,0,0,0,0,0,0,0,0,0,0,0,0],"sum_hessian":[1.1241606E3,6.0316693E2,5.209937E2,3.8955075E2,2.1361621E2,1.9739618E2,3.2359753E2,1.23278656E2,2.662721E2,6.3922844E1,1.4969336E2,1.1426817E2,8.3128006E1,2.2710426E1,3.008871E2,9.903626E1,2.4242395E1,1.7879805E2,8.747405E1,1.8320976E1,4.5601868E1,2.7048548E1,1.2264481E2,1.0550529E2,8.762888E0,1.202076E1,7.110725E1,1.4458237E1,8.25219E0,2.8734457E2,1.3542529E1],"tree_param":{"num_deleted":"0","num_feature":"20","num_nodes":"31","size_leaf_vector":"1"}},{"base_weights":[-4.2843845E-4,-1.7427753E-1,2.008171E-1,-6.960612E-2,-1.4576931E-1,6.9752383E-1,1.5718132E-1,1.7825067E-1,-2.3203702E-1,1.4838684E0,3.5760725E-1,2.0589444E-1,-4.216551E-1,2.9598458E-2,-7.2551295E-3,-2.0359648E-2,1.424287E-3,1.896704E-2,8.099974E-2,-1.6685737E-2,5.273781E-2,3.040381E-3,2.18822E-2,9.988591E-4,-4.9122185E-2],"categories":[],"categories_nodes":[],"categories_segments":[],"categories_sizes":[],"default_left":[0,0,0,0,0,0,0,0,0,0,0,0,0,0,0,0,0,0,0,0,0,0,0,0,0],"id":10,"left_children":[1,3,5,-1,7,9,11,13,15,17,19,21,23,-1,-1,-1,-1,-1,-1,-1,-1,-1,-1,-1,-1],"loss_changes":[3.9335724E1,2.0739887E1,1.1184774E1,0E0,1.6548286E1,1.0639719E1,1.3630052E1,1.6772259E1,2.1312813E1,1.2341442E0,1.5049439E1,1.4892172E1,9.334644E0,0E0,0E0,0E0,0E0,0E0,0E0,0E0,0E0,0E0,0E0,0E0,0E0],"parents":[2147483647,0,0,1,1,2,2,4,4,5,5,6,6,7,7,8,8,9,9,10,10,11,11,12,12],"right_children":[2,4,6,-1,8,10,12,14,16,18,20,22,24,-1,-1,-1,-1,-1,-1,-1,-1,-1,-1,-1,-1],"split_conditions":[6.025641E-1,-1.8714393E-3,-5.1188036E-3,-6.960612E-2,1.2599218E-4,9.2673486E-1,2.062682E-3,6.614455E-1,3.974359E-1,9.7445375E-4,2.0268465E1,1.1225034E0,7.692308E-1,2.9598458E-2,-7.2551295E-3,-2.0359648E-2,1.424287E-3,1.896704E-2,8.099974E-2,-1.6685737E-2,5.273781E-2,3.040381E-3,2.18822E-2,9.988591E-4,-4.9122185E-2],"split_indices":[0,11,2,0,16,14,16,19,0,13,17,10,0,0,0,0,0,0,0,0,0,0,0,0,0],"split_type":[0,0,0,0,0,0,0,0,0,0,0,0,0,0,0,0,0,0,0,0,0,0,0,0,0],"sum_hessian":[1.122316E3,6.022162E2,5.2009985E2,1.2680598E1,5.895356E2,4.0790916E1,4.7930893E2,1.2373246E2,4.658031E2,1.1295388E1,2.9495525E1,4.4269717E2,3.6611755E1,5.3916977E1,6.981548E1,2.781996E2,1.8760352E2,1.6548266E0,9.640562E0,1.5071406E1,1.442412E1,2.7302945E2,1.6966772E2,2.1021378E1,1.5590379E1],"tree_param":{"num_deleted":"0","num_feature":"20","num_nodes":"25","size_leaf_vector":"1"}},{"base_weights":[-3.701375E-4,-1.6591689E-1,1.9124883E-1,-3.6564562E-1,-2.5248898E-3,6.6946304E-1,1.4941446E-1,-8.806919E-1,-2.2468665E-1,5.4435724E-1,-1.0534264E-1,1.4313622E0,3.4211096E-1,2.7130902E-1,-6.667614E-2,-7.587516E-2,-1.2446272E-2,-2.7846176E-2,6.340164E-3,-2.548851E-2,4.892684E-2,-3.5727795E-2,-9.971521E-4,1.8400077E-2,7.8158766E-2,-1.5879635E-2,5.0679065E-2,2.1539683E-2,-4.7670114E-3,4.344572E-3,-4.7929626E-2],"categories":[],"categories_nodes":[],"categories_segments":[],"categories_sizes":[],"default_left":[0,0,0,0,0,0,0,0,0,0,0,0,0,0,0,0,0,0,0,0,0,0,0,0,0,0,0,0,0,0,0],"id":11,"left_children":[1,3,5,7,9,11,13,15,17,19,21,23,25,27,29,-1,-1,-1,-1,-1,-1,-1,-1,-1,-1,-1,-1,-1,-1,-1,-1],"loss_changes":[3.5619934E1,1.9658606E1,1.0312145E1,1.9481407E1,1.8745693E1,9.880751E0,1.26582E1,2.2917202E1,2.507989E1,2.4645851E1,1.458444E1,1.1322289E0,1.37873745E1,1.7993277E1,2.3898302E1,0E0,0E0,0E0,0E0,0E0,0E0,0E0,0E0,0E0,0E0,0E0,0E0,0E0,0E0,0E0,0E0],"parents":[2147483647,0,0,1,1,2,2,3,3,4,4,5,5,6,6,7,7,8,8,9,9,10,10,11,11,12,12,13,13,14,14],"right_children":[2,4,6,8,10,12,14,16,18,20,22,24,26,28,30,-1,-1,-1,-1,-1,-1,-1,-1,-1,-1,-1,-1,-1,-1,-1,-1],"split_conditions":[6.025641E-1,-3.607008E-4,-5.1188036E-3,2.8891469E-4,5.4188305E-1,9.2673486E-1,8.717949E-1,9.211696E-1,-1.2102098E-3,-1.4143295E-3,-5.4078904E-4,9.7445375E-4,2.0268465E1,-1.9766753E-4,9.322045E-4,-7.587516E-2,-1.2446272E-2,-2.7846176E-2,6.340164E-3,-2.548851E-2,4.892684E-2,-3.5727795E-2,-9.971521E-4,1.8400077E-2,7.8158766E-2,-1.5879635E-2,5.0679065E-2,2.1539683E-2,-4.7670114E-3,4.344572E-3,-4.7929626E-2],"split_indices":[0,1,2,13,19,14,0,19,2,4,4,13,17,3,12,0,0,0,0,0,0,0,0,0,0,0,0,0,0,0,0],"split_type":[0,0,0,0,0,0,0,0,0,0,0,0,0,0,0,0,0,0,0,0,0,0,0,0,0,0,0,0,0,0,0],"sum_hessian":[1.1208812E3,6.0142334E2,5.194579E2,2.700631E2,3.3136023E2,4.057999E1,4.7887787E2,5.690211E1,2.13161E2,5.1759552E1,2.7960068E2,1.1181934E1,2.9398054E1,3.060069E2,1.7287097E2,2.76397E1,2.9262413E1,1.09281235E2,1.0387975E2,1.5048876E1,3.6710674E1,3.3469913E1,2.4613078E2,1.6514258E0,9.530508E0,1.5094795E1,1.4303259E1,2.1312646E2,9.288044E1,1.4824854E2,2.4622427E1],"tree_param":{"num_deleted":"0","num_feature":"20","num_nodes":"31","size_leaf_vector":"1"}},{"base_weights":[-3.7135606E-4,-1.5809594E-1,1.8220298E-1,-6.7242675E-2,-1.3115276E-1,5.218639E-1,1.2613535E-1,-2.5069124E-1,7.940575E-2,1.3621207E0,3.571092E-1,1.7010276E-1,-3.637445E-1,-2.3222575E-2,4.3764305E-3,2.555201E-2,-5.3295465E-3,1.7154932E-2,7.127665E-2,-1.4407597E-2,3.0742899E-2,3.6767852E-3,2.3344781E-2,4.1729726E-2,-3.5256904E-2],"categories":[],"categories_nodes":[],"categories_segments":[],"categories_sizes":[],"default_left":[0,0,0,0,0,0,0,0,0,0,0,0,0,0,0,0,0,0,0,0,0,0,0,0,0],"id":12,"left_children":[1,3,5,-1,7,9,11,13,15,17,19,21,23,-1,-1,-1,-1,-1,-1,-1,-1,-1,-1,-1,-1],"loss_changes":[3.2284195E1,1.9056303E1,9.829916E0,0E0,1.4851144E1,9.66135E0,9.69665E0,2.723209E1,1.7246508E1,2.6444435E-1,1.0595397E1,1.174976E1,1.5790825E1,0E0,0E0,0E0,0E0,0E0,0E0,0E0,0E0,0E0,0E0,0E0,0E0],"parents":[2147483647,0,0,1,1,2,2,4,4,5,5,6,6,7,7,8,8,9,9,10,10,11,11,12,12],"right_children":[2,4,6,-1,8,10,12,14,16,18,20,22,24,-1,-1,-1,-1,-1,-1,-1,-1,-1,-1,-1,-1],"split_conditions":[6.025641E-1,-1.8714393E-3,7.009996E-1,-6.7242675E-2,0E0,5.82112E-4,1.2749494E-3,3.974359E-1,6.856318E-1,6.1538464E-1,7.5536175E-4,8.32312E-4,-3.6997693E-3,-2.3222575E-2,4.3764305E-3,2.555201E-2,-5.3295465E-3,1.7154932E-2,7.127665E-2,-1.4407597E-2,3.0742899E-2,3.6767852E-3,2.3344781E-2,4.1729726E-2,-3.5256904E-2],"split_indices":[0,11,19,0,11,12,12,0,19,0,13,13,1,0,0,0,0,0,0,0,0,0,0,0,0],"split_type":[0,0,0,0,0,0,0,0,0,0,0,0,0,0,0,0,0,0,0,0,0,0,0,0,0],"sum_hessian":[1.1191165E3,6.0049097E2,5.1862555E2,1.22445545E1,5.882464E2,7.2302864E1,4.4632266E2,3.7510236E2,2.1314404E2,1.066144E1,6.1641426E1,4.1016272E2,3.615993E1,2.2961122E2,1.4549113E2,6.3661037E1,1.4948302E2,1.0001309E0,9.661309E0,1.7560823E1,4.40806E1,3.1041214E2,9.975059E1,7.69716E0,2.8462772E1],"tree_param":{"num_deleted":"0","num_feature":"20","num_nodes":"25","size_leaf_vector":"1"}},{"base_weights":[-2.9467014E-4,-1.5056464E-1,1.7361276E-1,-4.572246E-1,-5.3025935E-2,3.4900466E-1,6.614555E-2,-7.040954E-1,-6.7192E-2,-1.1014384E-1,1.2747071E0,5.5985415E-1,5.0260488E-2,-1.0080342E0,1.5027598E-1,-6.795677E-2,-2.274316E-2,1.3902287E-2,-4.6979003E-2,1.6116112E-2,-1.3023622E-2,7.600988E-2,-5.177466E-2,5.7166334E-2,1.7811993E-2,4.1554287E-2,-7.284291E-3,-7.8576885E-2,1.8585846E-3,4.6779998E-2,2.8584942E-3],"categories":[],"categories_nodes":[],"categories_segments":[],"categories_sizes":[],"default_left":[0,0,0,0,0,0,0,0,0,0,0,0,0,0,0,0,0,0,0,0,0,0,0,0,0,0,0,0,0,0,0],"id":13,"left_children":[1,3,5,7,9,11,13,15,17,19,21,23,25,27,29,-1,-1,-1,-1,-1,-1,-1,-1,-1,-1,-1,-1,-1,-1,-1,-1],"loss_changes":[2.9255375E1,1.7938969E1,9.758091E0,1.389419E1,3.477994E1,1.2376034E1,2.9341682E1,1.3840206E1,1.7497166E1,2.861399E1,1.23034725E1,1.3296116E1,1.2755402E1,1.3952463E1,2.1912258E1,0E0,0E0,0E0,0E0,0E0,0E0,0E0,0E0,0E0,0E0,0E0,0E0,0E0,0E0,0E0,0E0],"parents":[2147483647,0,0,1,1,2,2,3,3,4,4,5,5,6,6,7,7,8,8,9,9,10,10,11,11,12,12,13,13,14,14],"right_children":[2,4,6,8,10,12,14,16,18,20,22,24,26,28,30,-1,-1,-1,-1,-1,-1,-1,-1,-1,-1,-1,-1,-1,-1,-1,-1],"split_conditions":[6.025641E-1,-5.934465E-4,7.692308E-1,-1.9270582E-4,1.200383E-3,-8.5207605E-4,3.9698608E-4,3.924022E-2,6.700994E-1,7.221417E-2,2.6229569E-3,8.1979815E-4,-1.0815613E-3,7.485794E-4,4.955084E-4,-6.795677E-2,-2.274316E-2,1.3902287E-2,-4.6979003E-2,1.6116112E-2,-1.3023622E-2,7.600988E-2,-5.177466E-2,5.7166334E-2,1.7811993E-2,4.1554287E-2,-7.284291E-3,-7.8576885E-2,1.8585846E-3,4.6779998E-2,2.8584942E-3],"split_indices":[0,7,0,11,12,2,13,14,19,14,9,16,1,16,13,0,0,0,0,0,0,0,0,0,0,0,0,0,0,0,0],"split_type":[0,0,0,0,0,0,0,0,0,0,0,0,0,0,0,0,0,0,0,0,0,0,0,0,0,0,0,0,0,0,0],"sum_hessian":[1.1174772E3,5.9955115E2,5.179261E2,1.4379007E2,4.5576108E2,1.9592273E2,3.2200336E2,8.756234E1,5.622773E1,4.378425E2,1.7918556E1,1.1434535E2,8.157738E1,2.2590128E1,2.994132E2,2.2906218E1,6.465612E1,4.0773396E1,1.5454331E1,1.1264388E2,3.2519864E2,1.650648E1,1.4120765E0,2.838649E1,8.595886E1,1.5714673E1,6.58627E1,1.4350014E1,8.240113E0,3.0776155E1,2.6863705E2],"tree_param":{"num_deleted":"0","num_feature":"20","num_nodes":"31","size_leaf_vector":"1"}},{"base_weights":[-2.9835213E-4,-1.6180293E-1,1.4864933E-1,-3.7095316E-2,-4.6665764E-1,-1.2206293E0,1.6951708E-1,2.014703E-1,-3.4294865E-1,-6.415275E-1,3.47617E-1,-8.3948396E-2,1.5599829E-2,6.8129593E-1,1.3022612E-1,2.9575562E-2,-1.739455E-3,-3.3547234E-2,6.8505565E-3,-4.6341315E-2,-8.498915E-3,-5.53976E-2,2.9528841E-2,4.4921994E-2,-5.0458234E-2,-2.283078E-2,9.3575185E-3],"categories":[],"categories_nodes":[],"categories_segments":[],"categories_sizes":[],"default_left":[0,0,0,0,0,0,0,0,0,0,0,0,0,0,0,0,0,0,0,0,0,0,0,0,0,0,0],"id":14,"left_children":[1,3,5,7,9,11,13,15,17,19,21,-1,-1,23,25,-1,-1,-1,-1,-1,-1,-1,-1,-1,-1,-1,-1],"loss_changes":[2.6886368E1,2.036895E1,1.6820816E1,2.7916035E1,2.2377586E1,6.7406406E0,1.1445169E1,1.98363E1,2.6477373E1,1.7120949E1,1.0611166E1,0E0,0E0,1.5831968E1,1.7921625E1,0E0,0E0,0E0,0E0,0E0,0E0,0E0,0E0,0E0,0E0,0E0,0E0],"parents":[2147483647,0,0,1,1,2,2,3,3,4,4,5,5,6,6,7,7,8,8,9,9,10,10,13,13,14,14],"right_children":[2,4,6,8,10,12,14,16,18,20,22,-1,-1,24,26,-1,-1,-1,-1,-1,-1,-1,-1,-1,-1,-1,-1],"split_conditions":[5.3846157E-1,4.4077134E-4,6.320442E-1,2.847842E-1,3.4997208E-4,3.657242E-4,7.687759E-1,5.4322125E-4,3.9866279E-4,4.1025642E-1,3.3227226E-1,-8.3948396E-2,1.5599829E-2,1.0948585E-3,5.573234E-4,2.9575562E-2,-1.739455E-3,-3.3547234E-2,6.8505565E-3,-4.6341315E-2,-8.498915E-3,-5.53976E-2,2.9528841E-2,4.4921994E-2,-5.0458234E-2,-2.283078E-2,9.3575185E-3],"split_indices":[0,16,10,14,8,12,10,13,9,0,14,0,0,9,9,0,0,0,0,0,0,0,0,0,0,0,0],"split_type":[0,0,0,0,0,0,0,0,0,0,0,0,0,0,0,0,0,0,0,0,0,0,0,0,0,0,0],"sum_hessian":[1.1156699E3,5.352308E2,5.804392E2,3.8064227E2,1.5458852E2,7.850032E0,5.725892E2,2.1403569E2,1.6660658E2,1.2743362E2,2.7154905E1,5.969378E0,1.880654E0,3.9660255E1,5.329289E2,8.01735E1,1.3386218E2,9.873495E1,6.787163E1,7.8795135E1,4.8638477E1,3.3750143E0,2.3779892E1,3.556089E1,4.099363E0,4.6502735E1,4.8642615E2],"tree_param":{"num_deleted":"0","num_feature":"20","num_nodes":"27","size_leaf_vector":"1"}},{"base_weights":[-4.496301E-4,-1.5413627E-1,1.4120756E-1,-3.5277236E-2,-4.4560188E-1,-1.1704286E0,1.6116552E-1,1.9146173E-1,-3.2658994E-1,-6.128684E-1,3.290217E-1,-8.062305E-2,1.509052E-2,6.488877E-1,1.2379183E-1,-1.2497601E-2,1.9336222E-2,-3.1993896E-2,6.5111243E-3,-4.4379454E-2,-8.088117E-3,3.6460593E-2,-2.6988387E-2,4.2860914E-2,-4.8491478E-2,-2.1732496E-2,8.8978885E-3],"categories":[],"categories_nodes":[],"categories_segments":[],"categories_sizes":[],"default_left":[0,0,0,0,0,0,0,0,0,0,0,0,0,0,0,0,0,0,0,0,0,0,0,0,0,0,0],"id":15,"left_children":[1,3,5,7,9,11,13,15,17,19,21,-1,-1,23,25,-1,-1,-1,-1,-1,-1,-1,-1,-1,-1,-1,-1],"loss_changes":[2.4302425E1,1.8532574E1,1.53945875E1,2.5254843E1,2.0285543E1,6.231222E0,1.0365214E1,1.8636614E1,2.4026281E1,1.5697956E1,1.0190408E1,0E0,0E0,1.4506327E1,1.6214901E1,0E0,0E0,0E0,0E0,0E0,0E0,0E0,0E0,0E0,0E0,0E0,0E0],"parents":[2147483647,0,0,1,1,2,2,3,3,4,4,5,5,6,6,7,7,8,8,9,9,10,10,13,13,14,14],"right_children":[2,4,6,8,10,12,14,16,18,20,22,-1,-1,24,26,-1,-1,-1,-1,-1,-1,-1,-1,-1,-1,-1,-1],"split_conditions":[5.3846157E-1,4.4077134E-4,6.320442E-1,2.847842E-1,3.4997208E-4,3.657242E-4,7.687759E-1,-5.934465E-4,3.9866279E-4,4.1025642E-1,6.0576923E1,-8.062305E-2,1.509052E-2,1.0948585E-3,5.573234E-4,-1.2497601E-2,1.9336222E-2,-3.1993896E-2,6.5111243E-3,-4.4379454E-2,-8.088117E-3,3.6460593E-2,-2.6988387E-2,4.2860914E-2,-4.8491478E-2,-2.1732496E-2,8.8978885E-3],"split_indices":[0,16,10,14,8,12,10,7,9,0,17,0,0,9,9,0,0,0,0,0,0,0,0,0,0,0,0],"split_type":[0,0,0,0,0,0,0,0,0,0,0,0,0,0,0,0,0,0,0,0,0,0,0,0,0,0,0],"sum_hessian":[1.1142847E3,5.344075E2,5.7987714E2,3.8040155E2,1.540059E2,7.8272285E0,5.720499E2,2.1410153E2,1.6630003E2,1.2682834E2,2.7177565E1,5.946559E0,1.8806695E0,3.9551067E1,5.3249884E2,6.5577034E1,1.485245E2,9.840905E1,6.7890976E1,7.8223274E1,4.860506E1,1.8716738E1,8.460827E0,3.5458015E1,4.09305E0,4.6461742E1,4.860371E2],"tree_param":{"num_deleted":"0","num_feature":"20","num_nodes":"27","size_leaf_vector":"1"}},{"base_weights":[-5.754884E-4,-1.4686258E-1,1.3414955E-1,-2.9942772E-1,5.9822917E-2,-1.1247659E0,1.532363E-1,3.7757784E-1,-4.559776E-1,5.946892E-1,-9.41394E-2,-7.764267E-2,1.4598891E-2,6.185121E-1,1.1767716E-1,4.8963618E-2,-9.5913205E-3,-4.1204557E-2,1.7137526E-3,-1.5173982E-2,5.361545E-2,7.1679377E-3,-3.0828668E-2,4.0926695E-2,-4.6640452E-2,-2.0691056E-2,8.460837E-3],"categories":[],"categories_nodes":[],"categories_segments":[],"categories_sizes":[],"default_left":[0,0,0,0,0,0,0,0,0,0,0,0,0,0,0,0,0,0,0,0,0,0,0,0,0,0,0],"id":16,"left_children":[1,3,5,7,9,11,13,15,17,19,21,-1,-1,23,25,-1,-1,-1,-1,-1,-1,-1,-1,-1,-1,-1,-1],"loss_changes":[2.1968063E1,1.686887E1,1.41151085E1,3.2774727E1,1.8813211E1,5.7819843E0,9.398629E0,2.0168728E1,4.5198536E1,2.2224054E1,2.2140467E1,0E0,0E0,1.330277E1,1.467225E1,0E0,0E0,0E0,0E0,0E0,0E0,0E0,0E0,0E0,0E0,0E0,0E0],"parents":[2147483647,0,0,1,1,2,2,3,3,4,4,5,5,6,6,7,7,8,8,9,9,10,10,13,13,14,14],"right_children":[2,4,6,8,10,12,14,16,18,20,22,-1,-1,24,26,-1,-1,-1,-1,-1,-1,-1,-1,-1,-1,-1,-1],"split_conditions":[5.3846157E-1,-5.511698E-5,6.320442E-1,6.113775E-1,5.4188305E-1,3.657242E-4,7.687759E-1,8.5733493E-4,3.846154E-1,-1.4143295E-3,5.589697E-4,-7.764267E-2,1.4598891E-2,1.0948585E-3,5.573234E-4,4.8963618E-2,-9.5913205E-3,-4.1204557E-2,1.7137526E-3,-1.5173982E-2,5.361545E-2,7.1679377E-3,-3.0828668E-2,4.0926695E-2,-4.6640452E-2,-2.0691056E-2,8.460837E-3],"split_indices":[0,11,10,10,19,12,10,13,0,4,13,0,0,9,9,0,0,0,0,0,0,0,0,0,0,0,0],"split_type":[0,0,0,0,0,0,0,0,0,0,0,0,0,0,0,0,0,0,0,0,0,0,0,0,0,0,0],"sum_hessian":[1.1126476E3,5.3339105E2,5.7925653E2,3.0661447E2,2.2677655E2,7.7859364E0,5.714706E2,5.7320038E1,2.4929445E2,5.0047745E1,1.767288E2,5.9054546E0,1.8804817E0,3.941029E1,5.320603E2,2.75198E1,2.9800238E1,1.4199467E2,1.07299774E2,1.750119E1,3.2546555E1,1.2199538E2,5.4733433E1,3.5327633E1,4.082656E0,4.6411873E1,4.8564844E2],"tree_param":{"num_deleted":"0","num_feature":"20","num_nodes":"27","size_leaf_vector":"1"}},{"base_weights":[-6.2376005E-4,-1.3983952E-1,1.274522E-1,-2.8088268E-2,-4.149158E-1,-1.0829977E0,1.4570527E-1,1.842275E-1,-3.0138943E-1,-5.750432E-1,3.2050225E-1,-7.495522E-2,1.4124225E-2,6.037951E-1,1.0985876E-1,2.696601E-2,-1.580276E-3,-2.0070856E-2,5.1620793E-2,-4.167819E-2,-7.7814125E-3,2.897372E-2,-4.5919355E-2,6.869006E-2,1.3379524E-2,-5.2685146E-3,1.1414904E-2],"categories":[],"categories_nodes":[],"categories_segments":[],"categories_sizes":[],"default_left":[0,0,0,0,0,0,0,0,0,0,0,0,0,0,0,0,0,0,0,0,0,0,0,0,0,0,0],"id":17,"left_children":[1,3,5,7,9,11,13,15,17,19,21,-1,-1,23,25,-1,-1,-1,-1,-1,-1,-1,-1,-1,-1,-1,-1],"loss_changes":[1.9841326E1,1.6379162E1,1.2963471E1,2.2119377E1,1.8315447E1,5.3829994E0,9.324128E0,1.6465406E1,2.2644897E1,1.3618244E1,9.570802E0,0E0,0E0,1.0318733E1,1.3574877E1,0E0,0E0,0E0,0E0,0E0,0E0,0E0,0E0,0E0,0E0,0E0,0E0],"parents":[2147483647,0,0,1,1,2,2,3,3,4,4,5,5,6,6,7,7,8,8,9,9,10,10,13,13,14,14],"right_children":[2,4,6,8,10,12,14,16,18,20,22,-1,-1,24,26,-1,-1,-1,-1,-1,-1,-1,-1,-1,-1,-1,-1],"split_conditions":[5.3846157E-1,4.4077134E-4,6.320442E-1,2.847842E-1,3.4997208E-4,3.657242E-4,-5.1188036E-3,5.4322125E-4,4.110446E-4,4.1025642E-1,6.639344E1,-7.495522E-2,1.4124225E-2,9.2673486E-1,-1.2312387E-3,2.696601E-2,-1.580276E-3,-2.0070856E-2,5.1620793E-2,-4.167819E-2,-7.7814125E-3,2.897372E-2,-4.5919355E-2,6.869006E-2,1.3379524E-2,-5.2685146E-3,1.1414904E-2],"split_indices":[0,16,10,14,8,12,2,13,16,0,17,0,0,14,11,0,0,0,0,0,0,0,0,0,0,0,0],"split_type":[0,0,0,0,0,0,0,0,0,0,0,0,0,0,0,0,0,0,0,0,0,0,0,0,0,0,0],"sum_hessian":[1.1107942E3,5.3220605E2,5.7858813E2,3.7923987E2,1.5296617E2,7.728696E0,5.7085944E2,2.1361646E2,1.6562341E2,1.25794235E2,2.717193E1,5.848585E0,1.8801105E0,4.027922E1,5.3058026E2,8.0189064E1,1.3342738E2,1.5471939E2,1.0904015E1,7.7213585E1,4.858065E1,2.291429E1,4.257642E0,1.1303871E1,2.8975351E1,1.8837456E2,3.422057E2],"tree_param":{"num_deleted":"0","num_feature":"20","num_nodes":"27","size_leaf_vector":"1"}},{"base_weights":[-5.8912823E-4,-1.3314362E-1,1.2123834E-1,-3.2574755E-1,1.2539995E-2,-1.0445935E0,1.3868946E-1,3.8005033E-1,-5.385229E-1,4.8645708E-1,-1.541699E-1,-7.251839E-2,1.3665824E-2,1.495225E-1,-1.310642E0,2.9990185E-2,-4.2006355E-2,-5.827709E-2,4.8984466E-3,-1.1813078E-2,3.943071E-2,-5.3142436E-2,-4.280123E-3,6.051836E-3,4.6912756E-2,-7.7608906E-2,-1.628421E-2],"categories":[],"categories_nodes":[],"categories_segments":[],"categories_sizes":[],"default_left":[0,0,0,0,0,0,0,0,0,0,0,0,0,0,0,0,0,0,0,0,0,0,0,0,0,0,0],"id":18,"left_children":[1,3,5,7,9,11,13,15,17,19,21,-1,-1,23,25,-1,-1,-1,-1,-1,-1,-1,-1,-1,-1,-1,-1],"loss_changes":[1.794662E1,1.493808E1,1.1926685E1,3.463148E1,2.4092117E1,5.026371E0,9.167981E0,1.4899511E1,7.057605E1,1.751377E1,1.3967767E1,0E0,0E0,1.2650304E1,5.2744436E-1,0E0,0E0,0E0,0E0,0E0,0E0,0E0,0E0,0E0,0E0,0E0,0E0],"parents":[2147483647,0,0,1,1,2,2,3,3,4,4,5,5,6,6,7,7,8,8,9,9,10,10,13,13,14,14],"right_children":[2,4,6,8,10,12,14,16,18,20,22,-1,-1,24,26,-1,-1,-1,-1,-1,-1,-1,-1,-1,-1,-1,-1],"split_conditions":[5.3846157E-1,-2.1242263E-4,6.320442E-1,6.9221836E-1,6.37232E-1,3.657242E-4,9.4416254E-4,2.4358974E-1,3.974359E-1,-1.4143295E-3,-8.933684E-4,-7.251839E-2,1.3665824E-2,6.1142857E1,1.3189022E-3,2.9990185E-2,-4.2006355E-2,-5.827709E-2,4.8984466E-3,-1.1813078E-2,3.943071E-2,-5.3142436E-2,-4.280123E-3,6.051836E-3,4.6912756E-2,-7.7608906E-2,-1.628421E-2],"split_indices":[0,11,10,10,19,12,4,0,0,4,4,0,0,17,9,0,0,0,0,0,0,0,0,0,0,0,0],"split_type":[0,0,0,0,0,0,0,0,0,0,0,0,0,0,0,0,0,0,0,0,0,0,0,0,0,0,0],"sum_hessian":[1.1093304E3,5.312311E2,5.780993E2,2.2824252E2,3.0298853E2,7.65779E0,5.704415E2,5.2687263E1,1.7555525E2,7.8347374E1,2.2464116E2,5.778216E0,1.8795742E0,5.670996E2,3.3419569E0,4.5077293E1,7.6099696E0,8.8017006E1,8.7538246E1,2.3162916E1,5.5184456E1,1.4744278E1,2.0989688E2,5.4844543E2,1.865413E1,2.221345E0,1.120612E0],"tree_param":{"num_deleted":"0","num_feature":"20","num_nodes":"27","size_leaf_vector":"1"}},{"base_weights":[-7.688713E-4,-1.2705833E-1,1.1509388E-1,-6.295874E-2,-1.02909796E-1,-1.0091127E0,1.3177335E-1,-1.4298673E-1,4.6250084E-1,-7.029744E-2,1.3223039E-2,-7.120613E-2,1.4175387E-1,-2.322151E-3,-3.0632032E-2,-7.996568E-3,6.821548E-2,1.1993985E-2,-1.8024108E-3],"categories":[],"categories_nodes":[],"categories_segments":[],"categories_sizes":[],"default_left":[0,0,0,0,0,0,0,0,0,0,0,0,0,0,0,0,0,0,0],"id":19,"left_children":[1,3,5,-1,7,9,11,13,15,-1,-1,-1,17,-1,-1,-1,-1,-1,-1],"loss_changes":[1.6234837E1,1.438391E1,1.0983403E1,0E0,1.18691E1,4.705759E0,9.069931E0,2.2060486E1,1.970287E1,0E0,0E0,0E0,9.924593E0,0E0,0E0,0E0,0E0,0E0,0E0],"parents":[2147483647,0,0,1,1,2,2,4,4,5,5,6,6,7,7,8,8,12,12],"right_children":[2,4,6,-1,8,10,12,14,16,-1,-1,-1,18,-1,-1,-1,-1,-1,-1],"split_conditions":[5.3846157E-1,-1.8714393E-3,6.320442E-1,-6.295874E-2,1.4263481E-3,3.657242E-4,1.740012E-4,7.601823E-4,1.2820514E-1,-7.029744E-2,1.3223039E-2,-7.120613E-2,8.5897434E-1,-2.322151E-3,-3.0632032E-2,-7.996568E-3,6.821548E-2,1.1993985E-2,-1.8024108E-3],"split_indices":[0,11,10,0,9,12,13,9,0,0,0,0,0,0,0,0,0,0,0],"split_type":[0,0,0,0,0,0,0,0,0,0,0,0,0,0,0,0,0,0,0],"sum_hessian":[1.1075254E3,5.298723E2,5.7765314E2,9.998238E0,5.198741E2,7.575269E0,5.700779E2,4.861615E2,3.371256E1,5.6963797E0,1.8788896E0,2.730435E0,5.673474E2,4.0417645E2,8.1985054E1,2.0432568E1,1.327999E1,3.6536163E2,2.0198578E2],"tree_param":{"num_deleted":"0","num_feature":"20","num_nodes":"19","size_leaf_vector":"1"}},{"base_weights":[-8.8289165E-4,-2.4584368E-1,5.603782E-2,-1.2303319E0,-1.21125594E-1,7.308644E-1,2.5604635E-2,-1.4563828E0,4.4318697E-1,-6.295928E-1,4.729641E-2,1.4528682E0,3.492686E-1,2.8337425E-1,-5.9026368E-2,-8.112364E-2,-2.659578E-2,6.000002E-2,-2.149811E-2,4.8678767E-2,-3.7781585E-2,5.9797235E-2,-3.8707033E-3,-2.1689508E-2,8.5462175E-2,-5.1108647E-2,4.573898E-2,3.8036194E-2,2.851865E-3,-1.7063336E-2,1.6161072E-3],"categories":[],"categories_nodes":[],"categories_segments":[],"categories_sizes":[],"default_left":[0,0,0,0,0,0,0,0,0,0,0,0,0,0,0,0,0,0,0,0,0,0,0,0,0,0,0,0,0,0,0],"id":20,"left_children":[1,3,5,7,9,11,13,15,17,19,21,23,25,27,29,-1,-1,-1,-1,-1,-1,-1,-1,-1,-1,-1,-1,-1,-1,-1,-1],"loss_changes":[1.5454379E1,2.5510996E1,1.8452286E1,9.493511E0,1.6009396E1,1.0175377E1,1.8813263E1,2.3366966E0,2.8618371E0,1.013122E1,2.030472E1,7.073284E0,2.1629911E1,2.2984539E1,1.6756144E1,0E0,0E0,0E0,0E0,0E0,0E0,0E0,0E0,0E0,0E0,0E0,0E0,0E0,0E0,0E0,0E0],"parents":[2147483647,0,0,1,1,2,2,3,3,4,4,5,5,6,6,7,7,8,8,9,9,10,10,11,11,12,12,13,13,14,14],"right_children":[2,4,6,8,10,12,14,16,18,20,22,24,26,28,30,-1,-1,-1,-1,-1,-1,-1,-1,-1,-1,-1,-1,-1,-1,-1,-1],"split_conditions":[2.8685722E-4,-3.626729E-4,3.0441317E-4,1.4277313E-4,-4.412008E-4,8.561728E-1,7.0841736E-1,6.375683E-4,2.9645868E1,7.487753E-1,-4.2089363E-4,7.1810067E-1,4.7902006E-4,6.4810616E-4,4.1025642E-1,-8.112364E-2,-2.659578E-2,6.000002E-2,-2.149811E-2,4.8678767E-2,-3.7781585E-2,5.9797235E-2,-3.8707033E-3,-2.1689508E-2,8.5462175E-2,-5.1108647E-2,4.573898E-2,3.8036194E-2,2.851865E-3,-1.7063336E-2,1.6161072E-3],"split_indices":[13,4,13,1,1,10,19,9,17,10,8,19,9,13,0,0,0,0,0,0,0,0,0,0,0,0,0,0,0,0,0],"split_type":[0,0,0,0,0,0,0,0,0,0,0,0,0,0,0,0,0,0,0,0,0,0,0,0,0,0,0,0,0,0,0],"sum_hessian":[1.1063817E3,2.0798595E2,8.983957E2,2.2388979E1,1.8559697E2,3.7774185E1,8.606215E2,1.9838974E1,2.550005E0,4.5498497E1,1.4009848E2,1.2090614E1,2.568357E1,2.1213898E2,6.4848254E2,1.6177485E1,3.6614892E0,1.1654766E0,1.3845283E0,2.8261757E0,4.267232E1,1.2879727E1,1.2721874E2,1.3636364E0,1.0726978E1,7.26279E0,1.842078E1,6.7473946E1,1.4466504E2,1.5789548E2,4.9058707E2],"tree_param":{"num_deleted":"0","num_feature":"20","num_nodes":"31","size_leaf_vector":"1"}},{"base_weights":[-7.772583E-4,-2.3415202E-1,5.3372506E-2,-1.1850667E0,-1.1486103E-1,7.9601014E-1,2.8113196E-2,-1.4066021E0,4.3133608E-1,-6.002593E-1,4.5337696E-2,-2.1391806E-1,1.1633375E0,2.64782E-1,-4.874839E-2,-7.8461856E-2,-2.4851305E-2,5.821724E-2,-2.0893468E-2,4.6899028E-2,-3.608621E-2,5.7020675E-2,-3.6797065E-3,6.3524224E-2,-5.9886735E-2,-7.85864E-3,6.6504635E-2,3.5332493E-2,2.7103575E-3,-1.6322581E-2,2.0502463E-3],"categories":[],"categories_nodes":[],"categories_segments":[],"categories_sizes":[],"default_left":[0,0,0,0,0,0,0,0,0,0,0,0,0,0,0,0,0,0,0,0,0,0,0,0,0,0,0,0,0,0,0],"id":21,"left_children":[1,3,5,7,9,11,13,15,17,19,21,23,25,27,29,-1,-1,-1,-1,-1,-1,-1,-1,-1,-1,-1,-1,-1,-1,-1,-1],"loss_changes":[1.3991855E1,2.3517326E1,1.6835695E1,8.891254E0,1.4520426E1,1.1201868E1,1.5841834E1,2.2646294E0,2.6987734E0,9.331394E0,1.845601E1,1.425516E1,5.0107155E0,1.9824757E1,1.640614E1,0E0,0E0,0E0,0E0,0E0,0E0,0E0,0E0,0E0,0E0,0E0,0E0,0E0,0E0,0E0,0E0],"parents":[2147483647,0,0,1,1,2,2,3,3,4,4,5,5,6,6,7,7,8,8,9,9,10,10,11,11,12,12,13,13,14,14],"right_children":[2,4,6,8,10,12,14,16,18,20,22,24,26,28,30,-1,-1,-1,-1,-1,-1,-1,-1,-1,-1,-1,-1,-1,-1,-1,-1],"split_conditions":[2.8685722E-4,-3.626729E-4,2.989707E-4,1.4277313E-4,-4.412008E-4,3.8673385E-4,7.0841736E-1,3.4746333E-4,2.9645868E1,7.487753E-1,-4.2089363E-4,6.6774166E-1,-2.983117E-4,6.4810616E-4,4.1025642E-1,-7.8461856E-2,-2.4851305E-2,5.821724E-2,-2.0893468E-2,4.6899028E-2,-3.608621E-2,5.7020675E-2,-3.6797065E-3,6.3524224E-2,-5.9886735E-2,-7.85864E-3,6.6504635E-2,3.5332493E-2,2.7103575E-3,-1.6322581E-2,2.0502463E-3],"split_indices":[13,4,13,1,1,9,19,12,17,10,8,10,6,13,0,0,0,0,0,0,0,0,0,0,0,0,0,0,0,0,0],"split_type":[0,0,0,0,0,0,0,0,0,0,0,0,0,0,0,0,0,0,0,0,0,0,0,0,0,0,0,0,0,0,0],"sum_hessian":[1.1052078E3,2.0751878E2,8.97689E2,2.2135323E1,1.8538345E2,2.8524992E1,8.6916406E2,1.9581396E1,2.5539253E0,4.53195E1,1.4006396E2,7.719277E0,2.0805716E1,2.1247511E2,6.566889E2,1.5996019E1,3.5853767E0,1.1715659E0,1.3823595E0,2.8247254E0,4.2494774E1,1.2880134E1,1.2718382E2,2.960712E0,4.7585654E0,2.3392215E0,1.8466494E1,6.781567E1,1.4465944E2,1.597558E2,4.9693314E2],"tree_param":{"num_deleted":"0","num_feature":"20","num_nodes":"31","size_leaf_vector":"1"}},{"base_weights":[-6.737635E-4,-1.13084815E-1,1.0224838E-1,-6.1719086E-2,-8.973806E-2,-9.79905E-1,1.18192226E-1,1.7113173E-1,-1.7003708E-1,-6.842681E-2,1.2676768E-2,5.613856E-1,8.37822E-2,2.4735948E-2,-4.839214E-3,-1.1150277E-2,2.4382887E-2,6.605221E-2,1.1694686E-2,-6.0172295E-3,9.815952E-3],"categories":[],"categories_nodes":[],"categories_segments":[],"categories_sizes":[],"default_left":[0,0,0,0,0,0,0,0,0,0,0,0,0,0,0,0,0,0,0,0,0],"id":22,"left_children":[1,3,5,-1,7,9,11,13,15,-1,-1,17,19,-1,-1,-1,-1,-1,-1,-1,-1],"loss_changes":[1.2794798E1,1.37267475E1,1.0076705E1,0E0,1.0898331E1,4.4166994E0,8.64303E0,1.0678646E1,1.3947918E1,0E0,0E0,9.861033E0,1.2197523E1,0E0,0E0,0E0,0E0,0E0,0E0,0E0,0E0],"parents":[2147483647,0,0,1,1,2,2,4,4,5,5,6,6,7,7,8,8,11,11,12,12],"right_children":[2,4,6,-1,8,10,12,14,16,-1,-1,18,20,-1,-1,-1,-1,-1,-1,-1,-1],"split_conditions":[5.3846157E-1,-1.8714393E-3,6.320442E-1,-6.1719086E-2,1.2599218E-4,3.657242E-4,-5.1188036E-3,5.146567E-4,1.4263481E-3,-6.842681E-2,1.2676768E-2,9.2673486E-1,-1.2312387E-3,2.4735948E-2,-4.839214E-3,-1.1150277E-2,2.4382887E-2,6.605221E-2,1.1694686E-2,-6.0172295E-3,9.815952E-3],"split_indices":[0,11,10,0,16,12,2,13,9,0,0,14,11,0,0,0,0,0,0,0,0],"split_type":[0,0,0,0,0,0,0,0,0,0,0,0,0,0,0,0,0,0,0,0,0],"sum_hessian":[1.1038998E3,5.275804E2,5.763194E2,9.702807E0,5.1787756E2,7.4900346E0,5.688294E2,1.2162373E2,3.9625385E2,5.612216E0,1.8778187E0,3.987924E1,5.2895013E2,5.470493E1,6.691881E1,3.6733118E2,2.8922655E1,1.1099267E1,2.8779972E1,1.8795517E2,3.40995E2],"tree_param":{"num_deleted":"0","num_feature":"20","num_nodes":"21","size_leaf_vector":"1"}},{"base_weights":[-6.503964E-4,-2.2082242E-1,5.0367303E-2,-1.2110094E0,-1.139451E-1,6.7242163E-1,2.2472218E-2,-1.4044538E0,-5.4225564E-1,-6.536831E-2,-1.3031462E0,1.3529339E0,3.1335464E-1,2.5509757E-1,-5.388505E-2,-2.0352544E-2,-7.507139E-2,-5.729307E-2,5.4221597E-2,2.2712194E-4,-4.2319342E-2,-7.248934E-2,-1.186086E-2,-2.1408835E-2,7.986233E-2,-5.9623756E-2,3.7819736E-2,4.1253816E-2,4.5686825E-3,-1.2416142E-2,3.100138E-3],"categories":[],"categories_nodes":[],"categories_segments":[],"categories_sizes":[],"default_left":[0,0,0,0,0,0,0,0,0,0,0,0,0,0,0,0,0,0,0,0,0,0,0,0,0,0,0,0,0,0,0],"id":23,"left_children":[1,3,5,7,9,11,13,15,17,19,21,23,25,27,29,-1,-1,-1,-1,-1,-1,-1,-1,-1,-1,-1,-1,-1,-1,-1,-1],"loss_changes":[1.240908E1,2.185609E1,1.5548363E1,1.8442535E0,1.0814665E1,8.973713E0,1.5279905E1,8.3916473E-1,7.279421E0,9.959486E0,8.0528927E-1,6.333206E0,1.856621E1,1.9761154E1,1.461421E1,0E0,0E0,0E0,0E0,0E0,0E0,0E0,0E0,0E0,0E0,0E0,0E0,0E0,0E0,0E0,0E0],"parents":[2147483647,0,0,1,1,2,2,3,3,4,4,5,5,6,6,7,7,8,8,9,9,10,10,11,11,12,12,13,13,14,14],"right_children":[2,4,6,8,10,12,14,16,18,20,22,24,26,28,30,-1,-1,-1,-1,-1,-1,-1,-1,-1,-1,-1,-1,-1,-1,-1,-1],"split_conditions":[2.8685722E-4,-2.3347064E-4,3.0441317E-4,3.3079332E-4,7.5641024E-1,8.561728E-1,7.0841736E-1,-1.3646489E-3,-9.2815113E-4,6.918845E-4,-3.52151E-5,7.1810067E-1,4.422524E-4,5.55095E-4,3.772894E1,-2.0352544E-2,-7.507139E-2,-5.729307E-2,5.4221597E-2,2.2712194E-4,-4.2319342E-2,-7.248934E-2,-1.186086E-2,-2.1408835E-2,7.986233E-2,-5.9623756E-2,3.7819736E-2,4.1253816E-2,4.5686825E-3,-1.2416142E-2,3.100138E-3],"split_indices":[13,6,13,12,0,10,19,1,8,9,7,19,9,13,17,0,0,0,0,0,0,0,0,0,0,0,0,0,0,0,0],"split_type":[0,0,0,0,0,0,0,0,0,0,0,0,0,0,0,0,0,0,0,0,0,0,0,0,0,0,0,0,0,0,0],"sum_hessian":[1.102741E3,2.0682753E2,8.959134E2,1.9142944E1,1.8768459E2,3.745992E1,8.584535E2,1.3994713E1,5.1482306E0,1.8133244E2,6.352145E0,1.1982495E1,2.5477425E1,2.1156667E2,6.468868E2,1.7006449E0,1.2294067E1,3.970504E0,1.1777266E0,1.6734702E2,1.3985428E1,5.2673903E0,1.0847547E0,1.3545864E0,1.0627909E1,5.40728E0,2.0070145E1,4.6309177E1,1.6525749E2,2.4114627E2,4.0574054E2],"tree_param":{"num_deleted":"0","num_feature":"20","num_nodes":"31","size_leaf_vector":"1"}},{"base_weights":[-7.614663E-4,-1.4239402E-1,7.674961E-2,-5.3513217E-1,7.362477E-2,-1.1083477E0,9.367388E-2,3.765398E-1,-1.0891877E0,1.9830394E-1,-4.591096E-1,-7.2280966E-2,1.223193E-2,-5.285803E-1,1.17341034E-1,3.4395754E-2,-1.5358386E-2,-5.748078E-2,5.7248052E-2,3.325361E-2,2.913429E-3,-4.533945E-2,6.038242E-3,-5.100469E-2,2.4838453E-2,6.874399E-2,5.1210504E-3],"categories":[],"categories_nodes":[],"categories_segments":[],"categories_sizes":[],"default_left":[0,0,0,0,0,0,0,0,0,0,0,0,0,0,0,0,0,0,0,0,0,0,0,0,0,0,0],"id":24,"left_children":[1,3,5,7,9,11,13,15,17,19,21,-1,-1,23,25,-1,-1,-1,-1,-1,-1,-1,-1,-1,-1,-1,-1],"loss_changes":[1.2119765E1,3.3167366E1,1.4414803E1,7.046181E1,1.6882053E1,4.973551E0,1.04356365E1,1.1529942E1,1.2996529E1,1.3396977E1,1.2633777E1,0E0,0E0,1.3605685E1,1.2606498E1,0E0,0E0,0E0,0E0,0E0,0E0,0E0,0E0,0E0,0E0,0E0,0E0],"parents":[2147483647,0,0,1,1,2,2,3,3,4,4,5,5,6,6,7,7,8,8,9,9,10,10,13,13,14,14],"right_children":[2,4,6,8,10,12,14,16,18,20,22,-1,-1,24,26,-1,-1,-1,-1,-1,-1,-1,-1,-1,-1,-1,-1],"split_conditions":[3.974359E-1,-2.1242263E-4,6.320442E-1,6.9221836E-1,4.4077134E-4,3.657242E-4,2.0626254E-4,3.2723948E-4,1.2219604E-3,4.8848385E-1,3.7136706E-5,-7.2280966E-2,1.223193E-2,1.827854E0,1.8803909E-4,3.4395754E-2,-1.5358386E-2,-5.748078E-2,5.7248052E-2,3.325361E-2,2.913429E-3,-4.533945E-2,6.038242E-3,-5.100469E-2,2.4838453E-2,6.874399E-2,5.1210504E-3],"split_indices":[0,11,10,10,16,12,13,9,4,19,6,0,0,19,12,0,0,0,0,0,0,0,0,0,0,0,0],"split_type":[0,0,0,0,0,0,0,0,0,0,0,0,0,0,0,0,0,0,0,0,0,0,0,0,0,0,0],"sum_hessian":[1.1020001E3,3.8948126E2,7.125189E2,1.376841E2,2.5179716E2,9.124161E0,7.033948E2,5.2166687E1,8.551741E1,2.0455228E2,4.724489E1,7.2487345E0,1.8754258E0,2.499134E1,6.7840344E2,3.5838776E1,1.6327913E1,8.373795E1,1.7794571E0,4.634038E1,1.5821188E2,2.6343328E1,2.090156E1,1.6896788E1,8.094552E0,6.8857527E0,6.7151764E2],"tree_param":{"num_deleted":"0","num_feature":"20","num_nodes":"27","size_leaf_vector":"1"}},{"base_weights":[-7.6490716E-4,-1.3587955E-1,7.2933905E-2,-5.132273E-1,6.999226E-2,-1.0727627E0,8.909802E-2,3.5784245E-1,-1.0509518E0,1.886308E-1,-4.3893087E-1,-7.020409E-2,1.1837604E-2,1.781016E-2,2.8635818E-1,2.7141398E-2,-3.7426032E-2,-5.5523045E-2,5.5138018E-2,2.9417146E-2,1.974784E-3,-4.350916E-2,5.74683E-3,4.2031403E-3,-2.3581252E-2,1.4001023E-3,3.466082E-2],"categories":[],"categories_nodes":[],"categories_segments":[],"categories_sizes":[],"default_left":[0,0,0,0,0,0,0,0,0,0,0,0,0,0,0,0,0,0,0,0,0,0,0,0,0,0,0],"id":25,"left_children":[1,3,5,7,9,11,13,15,17,19,21,-1,-1,23,25,-1,-1,-1,-1,-1,-1,-1,-1,-1,-1,-1,-1],"loss_changes":[1.0973569E1,3.0250977E1,1.3301071E1,6.47399E1,1.5329941E1,4.669842E0,9.895771E0,1.129337E1,1.2146561E1,1.2226148E1,1.1574758E1,0E0,0E0,1.684427E1,1.9619606E1,0E0,0E0,0E0,0E0,0E0,0E0,0E0,0E0,0E0,0E0,0E0,0E0],"parents":[2147483647,0,0,1,1,2,2,3,3,4,4,5,5,6,6,7,7,8,8,9,9,10,10,13,13,14,14],"right_children":[2,4,6,8,10,12,14,16,18,20,22,-1,-1,24,26,-1,-1,-1,-1,-1,-1,-1,-1,-1,-1,-1,-1],"split_conditions":[3.974359E-1,-2.1242263E-4,6.320442E-1,6.9221836E-1,4.4077134E-4,3.657242E-4,8.32312E-4,2.4358974E-1,1.2219604E-3,5.4188305E-1,3.7136706E-5,-7.020409E-2,1.1837604E-2,3.9517542E-4,-1.0637942E-3,2.7141398E-2,-3.7426032E-2,-5.5523045E-2,5.5138018E-2,2.9417146E-2,1.974784E-3,-4.350916E-2,5.74683E-3,4.2031403E-3,-2.3581252E-2,1.4001023E-3,3.466082E-2],"split_indices":[0,11,10,10,16,12,13,0,4,19,6,0,0,1,8,0,0,0,0,0,0,0,0,0,0,0,0],"split_type":[0,0,0,0,0,0,0,0,0,0,0,0,0,0,0,0,0,0,0,0,0,0,0,0,0,0,0],"sum_hessian":[1.1000133E3,3.8794196E2,7.1207135E2,1.3641339E2,2.5152856E2,8.997123E0,7.030743E2,5.2195496E1,8.4217896E1,2.0448827E2,4.70403E1,7.1227803E0,1.8743424E0,5.172394E2,1.8583488E2,4.515489E1,7.0406055E0,8.242482E1,1.7930789E0,5.476419E1,1.4972408E2,2.6126547E1,2.0913754E1,4.563003E2,6.093907E1,1.14313995E2,7.152089E1],"tree_param":{"num_deleted":"0","num_feature":"20","num_nodes":"27","size_leaf_vector":"1"}},{"base_weights":[-8.2008814E-4,-1.0090631E-1,9.032959E-2,-3.7516356E-1,-1.0370791E-2,-1.0559747E-2,2.5156397E-1,-6.375261E-1,-4.5789454E-2,-6.675948E-2,1.1969768E0,-1.3850504E-1,2.492036E-1,4.2960465E-1,-2.0016602E-1,-6.5668486E-2,-1.8600523E-2,1.1590967E-2,-5.297739E-2,1.0440392E-2,-1.0979158E-2,-2.7275244E-2,7.1177326E-2,3.8951722E-3,-2.4105363E-2,3.2793194E-2,-9.958614E-3,3.659458E-2,7.907203E-3,5.5057157E-2,-2.0151818E-2],"categories":[],"categories_nodes":[],"categories_segments":[],"categories_sizes":[],"default_left":[0,0,0,0,0,0,0,0,0,0,0,0,0,0,0,0,0,0,0,0,0,0,0,0,0,0,0,0,0,0,0],"id":26,"left_children":[1,3,5,7,9,11,13,15,17,19,21,23,25,27,29,-1,-1,-1,-1,-1,-1,-1,-1,-1,-1,-1,-1,-1,-1,-1,-1],"loss_changes":[1.0034497E1,1.3013557E1,9.367004E0,1.1212143E1,2.6983894E1,1.1835105E1,1.7909397E1,1.2490957E1,1.6780663E1,1.598535E1,7.7588253E0,1.7774384E1,2.1560345E1,1.295447E1,1.7163618E1,0E0,0E0,0E0,0E0,0E0,0E0,0E0,0E0,0E0,0E0,0E0,0E0,0E0,0E0,0E0,0E0],"parents":[2147483647,0,0,1,1,2,2,3,3,4,4,5,5,6,6,7,7,8,8,9,9,10,10,11,11,12,12,13,13,14,14],"right_children":[2,4,6,8,10,12,14,16,18,20,22,24,26,28,30,-1,-1,-1,-1,-1,-1,-1,-1,-1,-1,-1,-1,-1,-1,-1,-1],"split_conditions":[5.3846157E-1,-5.934465E-4,1.1225034E0,-2.4344442E-4,1.100768E-3,8.32312E-4,4.6953403E1,3.924022E-2,-2.565725E-3,1.8555918E-1,-1.7496262E-3,9.580909E-1,9.3766476E-4,5.6553114E-4,8.183187E-1,-6.5668486E-2,-1.8600523E-2,1.1590967E-2,-5.297739E-2,1.0440392E-2,-1.0979158E-2,-2.7275244E-2,7.1177326E-2,3.8951722E-3,-2.4105363E-2,3.2793194E-2,-9.958614E-3,3.659458E-2,7.907203E-3,5.5057157E-2,-2.0151818E-2],"split_indices":[0,7,10,11,12,13,17,14,3,14,4,10,12,13,19,0,0,0,0,0,0,0,0,0,0,0,0,0,0,0,0],"split_type":[0,0,0,0,0,0,0,0,0,0,0,0,0,0,0,0,0,0,0,0,0,0,0,0,0,0,0,0,0,0,0],"sum_hessian":[1.0979337E3,5.232624E2,5.746714E2,1.290848E2,3.9417755E2,3.5405978E2,2.2061163E2,7.133078E1,5.7754017E1,3.7749167E2,1.6685892E1,2.375315E2,1.1652828E2,1.5827827E2,6.233336E1,1.9006117E1,5.2324665E1,4.594399E1,1.1810029E1,1.3453523E2,2.4295645E2,1.7579954E0,1.4927897E1,1.4621513E2,9.1316345E1,6.0864075E1,5.566421E1,7.408464E1,8.4193634E1,7.809784E0,5.4523575E1],"tree_param":{"num_deleted":"0","num_feature":"20","num_nodes":"31","size_leaf_vector":"1"}},{"base_weights":[-7.770816E-4,-1.2643206E-1,6.744585E-2,-4.7216186E-1,7.131025E-2,-1.0443125E0,8.297302E-2,3.416202E-1,-9.776215E-1,1.877872E-1,-4.2813656E-1,-6.8447895E-2,1.1212444E-2,9.223804E-2,-1.3443099E0,2.732054E-2,-4.0023744E-2,-5.1675882E-2,5.3617872E-2,3.185782E-2,3.108397E-3,-4.388366E-2,6.837108E-3,3.815454E-3,5.6469E-2,-1.8625228E-2,-7.7439584E-2],"categories":[],"categories_nodes":[],"categories_segments":[],"categories_sizes":[],"default_left":[0,0,0,0,0,0,0,0,0,0,0,0,0,0,0,0,0,0,0,0,0,0,0,0,0,0,0],"id":27,"left_children":[1,3,5,7,9,11,13,15,17,19,21,-1,-1,23,25,-1,-1,-1,-1,-1,-1,-1,-1,-1,-1,-1,-1],"loss_changes":[9.413105E0,2.644917E1,1.2371827E1,5.82161E1,1.443012E1,4.3742895E0,9.417606E0,1.322098E1,1.1084358E1,1.1290724E1,1.2042778E1,0E0,0E0,1.1464971E1,3.3654404E-1,0E0,0E0,0E0,0E0,0E0,0E0,0E0,0E0,0E0,0E0,0E0,0E0],"parents":[2147483647,0,0,1,1,2,2,3,3,4,4,5,5,6,6,7,7,8,8,9,9,10,10,13,13,14,14],"right_children":[2,4,6,8,10,12,14,16,18,20,22,-1,-1,24,26,-1,-1,-1,-1,-1,-1,-1,-1,-1,-1,-1,-1],"split_conditions":[3.974359E-1,-1.9995711E-4,6.320442E-1,6.9221836E-1,4.4077134E-4,3.657242E-4,9.4416254E-4,2.4358974E-1,1.2219604E-3,4.7271112E-1,3.7136706E-5,-6.8447895E-2,1.1212444E-2,3.0503033E-3,6.2416107E1,2.732054E-2,-4.0023744E-2,-5.1675882E-2,5.3617872E-2,3.185782E-2,3.108397E-3,-4.388366E-2,6.837108E-3,3.815454E-3,5.6469E-2,-1.8625228E-2,-7.7439584E-2],"split_indices":[0,11,10,10,16,12,4,0,4,19,6,0,0,3,17,0,0,0,0,0,0,0,0,0,0,0,0],"split_type":[0,0,0,0,0,0,0,0,0,0,0,0,0,0,0,0,0,0,0,0,0,0,0,0,0,0,0],"sum_hessian":[1.096057E3,3.853869E2,7.1067004E2,1.3971808E2,2.4566882E2,8.87611E0,7.0179395E2,5.365635E1,8.606174E1,1.9971655E2,4.595227E1,7.004423E0,1.8716868E0,6.981971E2,3.5968795E0,4.5940304E1,7.7160454E0,8.426008E1,1.8016539E0,4.274296E1,1.569736E2,2.5280243E1,2.067203E1,6.8869336E2,9.503732E0,1.1157843E0,2.4810953E0],"tree_param":{"num_deleted":"0","num_feature":"20","num_nodes":"27","size_leaf_vector":"1"}},{"base_weights":[-8.7713305E-4,-3.1886995E-1,2.4576034E-2,-2.0119727E-1,-7.9752974E-2,4.986005E-4,4.6179155E-1,-7.20109E-2,-6.5779924E-2,5.8477813E-1,-1.9914407E-2,-2.4457168E-2,8.611616E-1,-8.305072E-3,7.750074E-2,6.769579E-2,2.9965432E-3,-5.888301E-3,5.112024E-3,-5.12108E-2,1.1306075E-2,6.1672647E-2,1.2662478E-2],"categories":[],"categories_nodes":[],"categories_segments":[],"categories_sizes":[],"default_left":[0,0,0,0,0,0,0,0,0,0,0,0,0,0,0,0,0,0,0,0,0,0,0],"id":28,"left_children":[1,3,5,7,-1,9,11,-1,13,15,17,19,21,-1,-1,-1,-1,-1,-1,-1,-1,-1,-1],"loss_changes":[8.870558E0,1.1876412E1,1.06821995E1,1.2574612E1,0E0,1.1494834E1,1.0306499E1,0E0,1.1461371E1,1.3052469E1,1.1143469E1,6.458718E0,6.275364E0,0E0,0E0,0E0,0E0,0E0,0E0,0E0,0E0,0E0,0E0],"parents":[2147483647,0,0,1,1,2,2,3,3,5,5,6,6,8,8,9,9,10,10,11,11,12,12],"right_children":[2,4,6,8,-1,10,12,-1,14,16,18,20,22,-1,-1,-1,-1,-1,-1,-1,-1,-1,-1],"split_conditions":[2.2430412E-4,5.663333E-4,1.4646968E0,-2.3852786E-4,-7.9752974E-2,1.7963989E-4,-1.1071033E-3,-7.20109E-2,5.0148973E-4,-1.1621336E-4,6.666667E-1,5E-1,-4.98782E-5,-8.305072E-3,7.750074E-2,6.769579E-2,2.9965432E-3,-5.888301E-3,5.112024E-3,-5.12108E-2,1.1306075E-2,6.1672647E-2,1.2662478E-2],"split_indices":[13,9,10,5,0,12,2,0,9,5,0,0,7,0,0,0,0,0,0,0,0,0,0],"split_type":[0,0,0,0,0,0,0,0,0,0,0,0,0,0,0,0,0,0,0,0,0,0,0],"sum_hessian":[1.0939843E3,8.022207E1,1.0137622E3,7.450948E1,5.712587E0,9.617972E2,5.1964977E1,6.391759E0,6.811772E1,3.153472E1,9.302625E2,2.3856956E1,2.810802E1,6.4980415E1,3.1373048E0,1.2149942E1,1.9384777E1,5.165325E2,4.1373E2,4.162402E0,1.9694553E1,1.6794132E1,1.1313889E1],"tree_param":{"num_deleted":"0","num_feature":"20","num_nodes":"23","size_leaf_vector":"1"}},{"base_weights":[-8.169761E-4,-6.835603E-2,4.971737E-3,4.676977E-1,-9.935881E-3,9.19981E-1,6.02831E-2,-1.6009745E-1,6.375899E-2,8.1303224E-2,2.3824336E-2,-1.5239148E-2,5.3329915E-2,-2.9827133E-2,8.3207915E-4,-5.0474722E-2,3.9270753E-3],"categories":[],"categories_nodes":[],"categories_segments":[],"categories_sizes":[],"default_left":[0,0,0,0,0,0,0,0,0,0,0,0,0,0,0,0,0],"id":29,"left_children":[1,-1,3,5,7,9,11,13,15,-1,-1,-1,-1,-1,-1,-1,-1],"loss_changes":[8.660031E0,0E0,7.5267997E0,6.2198625E0,1.1711599E1,4.2571087E0,7.3002295E0,2.6883572E1,1.1343966E1,0E0,0E0,0E0,0E0,0E0,0E0,0E0,0E0],"parents":[2147483647,0,0,2,2,3,3,4,4,5,5,6,6,7,7,8,8],"right_children":[2,-1,4,6,8,10,12,14,16,-1,-1,-1,-1,-1,-1,-1,-1],"split_conditions":[1.0641807E-4,-6.835603E-2,1.9143577E-4,6.947165E-1,3.974359E-1,4.837959E-4,5.535693E-5,-2.792429E-4,6.320442E-1,8.1303224E-2,2.3824336E-2,-1.5239148E-2,5.3329915E-2,-2.9827133E-2,8.3207915E-4,-5.0474722E-2,3.9270753E-3],"split_indices":[13,0,9,19,0,13,11,11,10,0,0,0,0,0,0,0,0],"split_type":[0,0,0,0,0,0,0,0,0,0,0,0,0,0,0,0,0],"sum_hessian":[1.0930802E3,3.6194327E0,1.0894608E3,3.3055622E1,1.0564052E3,1.5068987E1,1.7986633E1,3.4738885E2,7.090163E2,4.784748E0,1.0284239E1,1.3710087E1,4.276548E0,9.9443794E1,2.4794507E2,8.718765E0,7.0029755E2],"tree_param":{"num_deleted":"0","num_feature":"20","num_nodes":"17","size_leaf_vector":"1"}},{"base_weights":[-7.922023E-4,-6.62967E-2,4.77687E-3,1.7343715E-1,-3.541321E-2,-1.4977977E-1,3.6928517E-1,-2.3063976E-1,4.1516125E-2,-2.810866E-3,-6.4805634E-2,3.444665E-2,3.0194032E-3,-3.2470826E-2,-3.1208391E-3,1.5242222E-2,-3.8421508E-3],"categories":[],"categories_nodes":[],"categories_segments":[],"categories_sizes":[],"default_left":[0,0,0,0,0,0,0,0,0,0,0,0,0,0,0,0,0],"id":30,"left_children":[1,-1,3,5,7,9,11,13,15,-1,-1,-1,-1,-1,-1,-1,-1],"loss_changes":[8.0716715E0,0E0,7.3900294E0,1.3335416E1,1.3233841E1,8.493251E0,1.28855915E1,1.7504288E1,1.9736013E1,0E0,0E0,0E0,0E0,0E0,0E0,0E0,0E0],"parents":[2147483647,0,0,2,2,3,3,4,4,5,5,6,6,7,7,8,8],"right_children":[2,-1,4,6,8,10,12,14,16,-1,-1,-1,-1,-1,-1,-1,-1],"split_conditions":[1.0641807E-4,-6.62967E-2,6.756538E-1,2.0268465E1,-2.8409823E-4,1.969697E1,-2.7504878E-3,6.282051E-1,-4.893801E-4,-2.810866E-3,-6.4805634E-2,3.444665E-2,3.0194032E-3,-3.2470826E-2,-3.1208391E-3,1.5242222E-2,-3.8421508E-3],"split_indices":[13,0,19,17,6,17,3,0,11,0,0,0,0,0,0,0,0],"split_type":[0,0,0,0,0,0,0,0,0,0,0,0,0,0,0,0,0],"sum_hessian":[1.0918922E3,3.5773826E0,1.0883148E3,2.0879164E2,8.7952313E2,7.8867775E1,1.2992386E2,2.4804689E2,6.3147626E2,7.38863E1,4.9814787E0,6.3246193E1,6.667767E1,7.026578E1,1.7778111E2,1.9532866E2,4.361476E2],"tree_param":{"num_deleted":"0","num_feature":"20","num_nodes":"17","size_leaf_vector":"1"}},{"base_weights":[-8.671808E-4,-2.98917E-1,2.2932298E-2,-1.8507029E-1,-7.6818325E-2,1.1431972E-4,4.384611E-1,-1.2794442E0,-3.977344E-2,3.3591524E-1,-3.1756464E-2,-2.6566273E-2,8.202877E-1,-7.127179E-2,-5.2759093E-3,-4.29624E-2,7.4761542E-3,1.1182955E-2,7.931514E-2,-7.115543E-3,4.614442E-3,3.895619E-2,-1.6644225E-2,5.8883548E-2,1.20437145E-2],"categories":[],"categories_nodes":[],"categories_segments":[],"categories_sizes":[],"default_left":[0,0,0,0,0,0,0,0,0,0,0,0,0,0,0,0,0,0,0,0,0,0,0,0,0],"id":31,"left_children":[1,3,5,7,-1,9,11,13,15,17,19,21,23,-1,-1,-1,-1,-1,-1,-1,-1,-1,-1,-1,-1],"loss_changes":[7.753011E0,1.1101785E1,9.59712E0,1.1898552E1,0E0,1.0290247E1,9.377286E0,1.3536291E0,1.0579706E1,1.1343929E1,1.2056024E1,6.361423E0,5.7140408E0,0E0,0E0,0E0,0E0,0E0,0E0,0E0,0E0,0E0,0E0,0E0,0E0],"parents":[2147483647,0,0,1,1,2,2,3,3,5,5,6,6,7,7,8,8,9,9,10,10,11,11,12,12],"right_children":[2,4,6,8,-1,10,12,14,16,18,20,22,24,-1,-1,-1,-1,-1,-1,-1,-1,-1,-1,-1,-1],"split_conditions":[2.2430412E-4,5.663333E-4,1.4646968E0,-2.2653793E-4,-7.6818325E-2,2.7558365E-4,-1.1071033E-3,6.242817E-5,1.3815546E-4,3.4615386E-1,6.666667E-1,1.4886211E0,-4.98782E-5,-7.127179E-2,-5.2759093E-3,-4.29624E-2,7.4761542E-3,1.1182955E-2,7.931514E-2,-7.115543E-3,4.614442E-3,3.895619E-2,-1.6644225E-2,5.8883548E-2,1.20437145E-2],"split_indices":[13,9,10,5,0,9,2,4,12,0,0,10,7,0,0,0,0,0,0,0,0,0,0,0,0],"split_type":[0,0,0,0,0,0,0,0,0,0,0,0,0,0,0,0,0,0,0,0,0,0,0,0,0],"sum_hessian":[1.0910182E3,7.982167E1,1.0111966E3,7.414941E1,5.6722684E0,9.595073E2,5.1689255E1,7.775877E0,6.637353E1,8.2345764E1,8.7716156E2,2.372498E1,2.7964277E1,6.7252645E0,1.0506127E0,1.1790909E1,5.458262E1,7.664378E1,5.701984E0,4.63724E2,4.1343756E2,6.110195E0,1.7614784E1,1.6657423E1,1.1306854E1],"tree_param":{"num_deleted":"0","num_feature":"20","num_nodes":"25","size_leaf_vector":"1"}},{"base_weights":[-8.351256E-4,-1.7031057E-1,3.8195062E-2,-1.1229736E0,-7.176874E-2,6.481122E-1,1.0971331E-2,-1.2239633E0,-2.2073711E-1,-2.3238031E-2,-1.262938E0,1.2850139E0,3.0926138E-1,2.2418213E-1,-5.8436994E-2,-6.480234E-2,-2.5051075E-3,-4.2494275E-2,2.7920926E-2,2.2850444E-3,-3.9648537E-2,-7.025593E-2,-1.1579351E-2,-2.281678E-2,7.641688E-2,-4.4559296E-2,3.9603293E-2,3.9153975E-2,3.2220844E-3,-1.2088376E-2,2.5381322E-3],"categories":[],"categories_nodes":[],"categories_segments":[],"categories_sizes":[],"default_left":[0,0,0,0,0,0,0,0,0,0,0,0,0,0,0,0,0,0,0,0,0,0,0,0,0,0,0,0,0,0,0],"id":32,"left_children":[1,3,5,7,9,11,13,15,17,19,21,23,25,27,29,-1,-1,-1,-1,-1,-1,-1,-1,-1,-1,-1,-1,-1,-1,-1,-1],"loss_changes":[7.2241573E0,1.9111423E1,1.4732832E1,1.4697952E0,1.0742734E1,7.784852E0,1.260389E1,1.3696232E0,2.0149772E0,9.591331E0,7.415285E-1,6.141821E0,1.5812137E1,1.8622738E1,1.2877938E1,0E0,0E0,0E0,0E0,0E0,0E0,0E0,0E0,0E0,0E0,0E0,0E0,0E0,0E0,0E0,0E0],"parents":[2147483647,0,0,1,1,2,2,3,3,4,4,5,5,6,6,7,7,8,8,9,9,10,10,11,11,12,12,13,13,14,14],"right_children":[2,4,6,8,10,12,14,16,18,20,22,24,26,28,30,-1,-1,-1,-1,-1,-1,-1,-1,-1,-1,-1,-1,-1,-1,-1,-1],"split_conditions":[2.8685722E-4,-2.3347064E-4,3.0441317E-4,-7.6418277E-4,7.5641024E-1,8.561728E-1,7.0841736E-1,2.4643115E-4,-2.7330423E-4,6.918845E-4,1.8095289E-4,7.1810067E-1,4.7902006E-4,5.55095E-4,3.772894E1,-6.480234E-2,-2.5051075E-3,-4.2494275E-2,2.7920926E-2,2.2850444E-3,-3.9648537E-2,-7.025593E-2,-1.1579351E-2,-2.281678E-2,7.641688E-2,-4.4559296E-2,3.9603293E-2,3.9153975E-2,3.2220844E-3,-1.2088376E-2,2.5381322E-3],"split_indices":[13,6,13,8,0,10,19,15,1,9,15,19,9,13,17,0,0,0,0,0,0,0,0,0,0,0,0,0,0,0,0],"split_type":[0,0,0,0,0,0,0,0,0,0,0,0,0,0,0,0,0,0,0,0,0,0,0,0,0,0,0,0,0,0,0],"sum_hessian":[1.0901602E3,2.0343755E2,8.8672266E2,1.8096073E1,1.8534148E2,3.691336E1,8.498093E2,1.595374E1,2.1423323E0,1.7906549E2,6.2759895E0,1.1849275E1,2.5064085E1,2.0815671E2,6.416526E2,1.4932679E1,1.021061E0,1.1350394E0,1.0072929E0,1.6520958E2,1.3855899E1,5.197118E0,1.0788717E0,1.345409E0,1.0503865E1,6.946478E0,1.8117607E1,4.5402157E1,1.6275455E2,2.3907164E2,4.0258096E2],"tree_param":{"num_deleted":"0","num_feature":"20","num_nodes":"31","size_leaf_vector":"1"}},{"base_weights":[-9.0736296E-4,-6.3269936E-2,4.325909E-3,4.3984166E-1,-9.70204E-3,8.617208E-1,6.0695346E-2,-1.5058154E-1,5.9243076E-2,1.6513294E-2,6.902822E-2,-1.442795E-2,5.104173E-2,-2.8378868E-2,8.2436914E-4,-4.854344E-2,3.6634186E-3],"categories":[],"categories_nodes":[],"categories_segments":[],"categories_sizes":[],"default_left":[0,0,0,0,0,0,0,0,0,0,0,0,0,0,0,0,0],"id":33,"left_children":[1,-1,3,5,7,9,11,13,15,-1,-1,-1,-1,-1,-1,-1,-1],"loss_changes":[7.220516E0,0E0,6.64403E0,5.3757987E0,1.0245177E1,3.9522629E0,6.648679E0,2.415386E1,1.0304482E1,0E0,0E0,0E0,0E0,0E0,0E0,0E0,0E0],"parents":[2147483647,0,0,2,2,3,3,4,4,5,5,6,6,7,7,8,8],"right_children":[2,-1,4,6,8,10,12,14,16,-1,-1,-1,-1,-1,-1,-1,-1],"split_conditions":[1.0641807E-4,-6.3269936E-2,1.9143577E-4,6.947165E-1,3.974359E-1,3.6471754E-1,5.535693E-5,-2.792429E-4,6.320442E-1,1.6513294E-2,6.902822E-2,-1.442795E-2,5.104173E-2,-2.8378868E-2,8.2436914E-4,-4.854344E-2,3.6634186E-3],"split_indices":[13,0,9,19,0,10,11,11,10,0,0,0,0,0,0,0,0],"split_type":[0,0,0,0,0,0,0,0,0,0,0,0,0,0,0,0,0],"sum_hessian":[1.0893094E3,3.4972053E0,1.0858123E3,3.2935406E1,1.0528768E3,1.4986744E1,1.7948664E1,3.4556995E2,7.073069E2,8.211842E0,6.7749023E0,1.3674114E1,4.27455E0,9.8162895E1,2.4740704E2,8.58445E0,6.987224E2],"tree_param":{"num_deleted":"0","num_feature":"20","num_nodes":"17","size_leaf_vector":"1"}},{"base_weights":[-8.887474E-4,-2.823795E-1,2.1513257E-2,-1.7408144E-1,-7.3389195E-2,-2.84788E-4,4.1926137E-1,-6.7908786E-2,-4.91993E-2,5.241724E-1,-1.8600684E-2,-2.755062E-2,7.877196E-1,-7.235379E-3,7.381496E-2,6.332532E-2,9.430687E-4,-3.7642243E-5,-2.5977492E-2,-4.9544152E-2,1.0591295E-2,-1.7371323E-2,4.6950005E-2],"categories":[],"categories_nodes":[],"categories_segments":[],"categories_sizes":[],"default_left":[0,0,0,0,0,0,0,0,0,0,0,0,0,0,0,0,0,0,0,0,0,0,0],"id":34,"left_children":[1,3,5,7,-1,9,11,-1,13,15,17,19,21,-1,-1,-1,-1,-1,-1,-1,-1,-1,-1],"loss_changes":[6.873855E0,1.006026E1,8.754685E0,1.098858E1,0E0,9.214855E0,8.658752E0,0E0,1.0218409E1,1.2118899E1,8.286931E0,5.9003015E0,5.2695694E0,0E0,0E0,0E0,0E0,0E0,0E0,0E0,0E0,0E0,0E0],"parents":[2147483647,0,0,1,1,2,2,3,3,5,5,6,6,8,8,9,9,10,10,11,11,12,12],"right_children":[2,4,6,8,-1,10,12,-1,14,16,18,20,22,-1,-1,-1,-1,-1,-1,-1,-1,-1,-1],"split_conditions":[2.2430412E-4,5.663333E-4,1.4646968E0,-2.3852786E-4,-7.3389195E-2,1.7963989E-4,-1.1071033E-3,-6.7908786E-2,5.0148973E-4,-1.1621336E-4,1.4088893E0,5E-1,4.2307693E-1,-7.235379E-3,7.381496E-2,6.332532E-2,9.430687E-4,-3.7642243E-5,-2.5977492E-2,-4.9544152E-2,1.0591295E-2,-1.7371323E-2,4.6950005E-2],"split_indices":[13,9,10,5,0,12,2,0,9,5,10,0,0,0,0,0,0,0,0,0,0,0,0],"split_type":[0,0,0,0,0,0,0,0,0,0,0,0,0,0,0,0,0,0,0,0,0,0,0],"sum_hessian":[1.0880939E3,7.935531E1,1.0087385E3,7.376319E1,5.592121E0,9.5727563E2,5.1462906E1,6.095153E0,6.766804E1,3.1371313E1,9.259043E2,2.3676617E1,2.7786291E1,6.4532906E1,3.13513E0,1.2095649E1,1.9275665E1,8.9501807E2,3.0886244E1,4.0875387E0,1.9589077E1,3.1151226E0,2.4671167E1],"tree_param":{"num_deleted":"0","num_feature":"20","num_nodes":"23","size_leaf_vector":"1"}},{"base_weights":[-8.8900566E-4,-6.1395276E-2,4.1273087E-3,-6.227502E-2,9.066801E-2,-3.302396E-1,1.8068917E-2,9.819372E-3,3.321595E-1,5.700193E-3,-3.347188E-2,1.0730896E-2,-6.8201027E-3,9.679581E-3,-1.1220819E-2,-2.1098293E-2,2.5166472E-2],"categories":[],"categories_nodes":[],"categories_segments":[],"categories_sizes":[],"default_left":[0,0,0,0,0,0,0,0,0,0,0,0,0,0,0,0,0],"id":35,"left_children":[1,-1,3,5,7,9,11,13,15,-1,-1,-1,-1,-1,-1,-1,-1],"loss_changes":[6.7051945E0,0E0,6.241253E0,1.3237658E1,9.202894E0,2.1446438E1,1.4413478E1,1.5294134E1,1.5474737E1,0E0,0E0,0E0,0E0,0E0,0E0,0E0,0E0],"parents":[2147483647,0,0,2,2,3,3,4,4,5,5,6,6,7,7,8,8],"right_children":[2,-1,4,6,8,10,12,14,16,-1,-1,-1,-1,-1,-1,-1,-1],"split_conditions":[1.0641807E-4,-6.1395276E-2,-3.120182E-4,5.230399E-4,8.32312E-4,7.576328E-1,5.9990934E-4,1.241619E-4,-7.638753E-3,5.700193E-3,-3.347188E-2,1.0730896E-2,-6.8201027E-3,9.679581E-3,-1.1220819E-2,-2.1098293E-2,2.5166472E-2],"split_indices":[13,0,1,9,13,10,13,1,3,0,0,0,0,0,0,0,0],"split_type":[0,0,0,0,0,0,0,0,0,0,0,0,0,0,0,0,0],"sum_hessian":[1.0875486E3,3.4354575E0,1.084113E3,6.1358905E2,4.7052402E2,1.4081845E2,4.727706E2,3.5328787E2,1.1723615E2,6.125605E1,7.956241E1,2.078776E2,2.64893E2,1.980663E2,1.5522157E2,2.141642E1,9.5819725E1],"tree_param":{"num_deleted":"0","num_feature":"20","num_nodes":"17","size_leaf_vector":"1"}},{"base_weights":[-9.288645E-4,1.587411E-1,-3.872555E-2,-1.20942496E-1,3.5349885E-1,-2.1779747E-1,3.0336086E-2,-2.8498188E-2,-1.1287102E0,6.9472903E-1,5.5261858E-2,-4.4845203E-1,8.930094E-2,-1.5938845E-1,1.2155483E-1,-9.852795E-3,4.31482E-2,-6.732638E-2,1.0749049E-3,-3.9625183E-2,3.8964603E-2,4.42061E-2,-1.6232276E-2,-2.9571548E-2,7.851347E-3,-9.3262205E-3,2.2107037E-2,1.8830512E-2,-1.3749932E-2,1.5624464E-2,-6.814898E-3],"categories":[],"categories_nodes":[],"categories_segments":[],"categories_sizes":[],"default_left":[0,0,0,0,0,0,0,0,0,0,0,0,0,0,0,0,0,0,0,0,0,0,0,0,0,0,0,0,0,0,0],"id":36,"left_children":[1,3,5,7,9,11,13,15,17,19,21,23,25,27,29,-1,-1,-1,-1,-1,-1,-1,-1,-1,-1,-1,-1,-1,-1,-1,-1],"loss_changes":[6.5698385E0,1.1392907E1,1.0892445E1,8.006045E0,1.2488226E1,1.740226E1,1.1028345E1,1.2199779E1,1.8387756E0,7.826565E0,2.1312109E1,1.2225256E1,1.0395534E1,1.2929031E1,2.122002E1,0E0,0E0,0E0,0E0,0E0,0E0,0E0,0E0,0E0,0E0,0E0,0E0,0E0,0E0,0E0,0E0],"parents":[2147483647,0,0,1,1,2,2,3,3,4,4,5,5,6,6,7,7,8,8,9,9,10,10,11,11,12,12,13,13,14,14],"right_children":[2,4,6,8,10,12,14,16,18,20,22,24,26,28,30,-1,-1,-1,-1,-1,-1,-1,-1,-1,-1,-1,-1,-1,-1,-1,-1],"split_conditions":[6.756538E-1,2.1153847E1,3.974359E-1,-3.3852062E-4,-2.7504878E-3,-8.009228E-5,-2.8409823E-4,-1.5973303E-3,5.897436E-1,-3.2926574E-3,2.618342E-4,1.0766474E-3,1.2380735E0,-1.2251192E-3,-2.0727946E-4,-9.852795E-3,4.31482E-2,-6.732638E-2,1.0749049E-3,-3.9625183E-2,3.8964603E-2,4.42061E-2,-1.6232276E-2,-2.9571548E-2,7.851347E-3,-9.3262205E-3,2.2107037E-2,1.8830512E-2,-1.3749932E-2,1.5624464E-2,-6.814898E-3],"split_indices":[19,17,0,6,3,7,6,8,0,4,9,13,19,5,11,0,0,0,0,0,0,0,0,0,0,0,0,0,0,0,0],"split_type":[0,0,0,0,0,0,0,0,0,0,0,0,0,0,0,0,0,0,0,0,0,0,0,0,0,0,0,0,0,0,0],"sum_hessian":[1.086605E3,2.0737234E2,8.792326E2,8.528174E1,1.2209061E2,2.4411252E2,6.351201E2,7.905789E1,6.223842E0,5.6321014E1,6.5769585E1,1.3914421E2,1.0496831E2,2.0597284E2,4.2914725E2,6.714169E1,1.1916202E1,5.0893745E0,1.1344676E0,2.5796833E0,5.3741333E1,2.0253801E1,4.5515785E1,1.1258208E2,2.6562138E1,5.9178265E1,4.5790043E1,3.6143703E1,1.6982915E2,2.4644681E2,1.8270045E2],"tree_param":{"num_deleted":"0","num_feature":"20","num_nodes":"31","size_leaf_vector":"1"}},{"base_weights":[-8.882328E-4,-5.964873E-2,3.9159316E-3,1.6913822E-2,-4.2241827E-1,-6.201741E-3,3.5434884E-1,3.7692177E-1,-7.4572706E-1,2.47354E-4,-3.750212E-2,-1.4640331E-2,3.1238083E-2,4.666266E-2,-3.028281E-2,-2.1855477E-3,-6.299186E-2],"categories":[],"categories_nodes":[],"categories_segments":[],"categories_sizes":[],"default_left":[0,0,0,0,0,0,0,0,0,0,0,0,0,0,0,0,0],"id":37,"left_children":[1,-1,3,5,7,9,11,13,15,-1,-1,-1,-1,-1,-1,-1,-1],"loss_changes":[6.225315E0,0E0,6.0076246E0,8.20594E0,8.570299E0,8.174868E0,1.1986203E1,5.977727E0,8.308535E0,0E0,0E0,0E0,0E0,0E0,0E0,0E0,0E0],"parents":[2147483647,0,0,2,2,3,3,4,4,5,5,6,6,7,7,8,8],"right_children":[2,-1,4,6,8,10,12,14,16,-1,-1,-1,-1,-1,-1,-1,-1],"split_conditions":[1.0641807E-4,-5.964873E-2,2.789125E-3,1.4319351E0,3.3653472E-4,1.4088893E0,3.253648E1,2.2922988E0,-3.74236E-3,2.47354E-4,-3.750212E-2,-1.4640331E-2,3.1238083E-2,4.666266E-2,-3.028281E-2,-2.1855477E-3,-6.299186E-2],"split_indices":[13,0,16,10,13,10,17,19,3,0,0,0,0,0,0,0,0],"split_type":[0,0,0,0,0,0,0,0,0,0,0,0,0,0,0,0,0],"sum_hessian":[1.0851997E3,3.3631372E0,1.0818367E3,1.0507618E3,3.1074839E1,9.843142E2,6.6447586E1,8.901409E0,2.217343E1,9.707576E2,1.3556545E1,1.9558092E1,4.6889496E1,5.7155104E0,3.1858983E0,9.832371E0,1.2341059E1],"tree_param":{"num_deleted":"0","num_feature":"20","num_nodes":"17","size_leaf_vector":"1"}},{"base_weights":[-9.6338097E-4,1.5190761E-1,-3.7095193E-2,-1.1412264E-1,3.3746266E-1,-2.0625573E-1,2.9302195E-2,-2.5150193E-2,-1.0978305E0,7.8735334E-1,1.2381157E-1,-5.9775114E-1,-5.1813435E-2,2.7998897E-1,-8.212093E-2,3.7810158E-2,-1.0576699E-2,-6.566211E-2,1.0399077E-3,-3.8444616E-2,4.582722E-2,4.2284068E-2,-8.432417E-3,6.127528E-2,-3.4280572E-2,2.4828084E-2,-8.882149E-3,-5.9130758E-2,1.7116886E-2,-1.0717149E-2,7.6992246E-3],"categories":[],"categories_nodes":[],"categories_segments":[],"categories_sizes":[],"default_left":[0,0,0,0,0,0,0,0,0,0,0,0,0,0,0,0,0,0,0,0,0,0,0,0,0,0,0,0,0,0,0],"id":38,"left_children":[1,3,5,7,9,11,13,15,17,19,21,23,25,27,29,-1,-1,-1,-1,-1,-1,-1,-1,-1,-1,-1,-1,-1,-1,-1,-1],"loss_changes":[6.003838E0,1.0296026E1,9.880439E0,7.5107584E0,1.169315E1,1.4959821E1,1.7682169E1,1.1811904E1,1.7431202E0,8.608168E0,1.7951698E1,1.2060591E1,1.2431815E1,1.8165516E1,1.3720726E1,0E0,0E0,0E0,0E0,0E0,0E0,0E0,0E0,0E0,0E0,0E0,0E0,0E0,0E0,0E0,0E0],"parents":[2147483647,0,0,1,1,2,2,3,3,4,4,5,5,6,6,7,7,8,8,9,9,10,10,11,11,12,12,13,13,14,14],"right_children":[2,4,6,8,10,12,14,16,18,20,22,24,26,28,30,-1,-1,-1,-1,-1,-1,-1,-1,-1,-1,-1,-1,-1,-1,-1,-1],"split_conditions":[6.756538E-1,2.1153847E1,-2.8409823E-4,-3.3852062E-4,-3.7843604E-3,6.282051E-1,-4.893801E-4,5.55095E-4,5.897436E-1,-3.2926574E-3,2.618342E-4,1.7421032E-4,-1.2251192E-3,1.857091E-4,1.8488253E-4,3.7810158E-2,-1.0576699E-2,-6.566211E-2,1.0399077E-3,-3.8444616E-2,4.582722E-2,4.2284068E-2,-8.432417E-3,6.127528E-2,-3.4280572E-2,2.4828084E-2,-8.882149E-3,-5.9130758E-2,1.7116886E-2,-1.0717149E-2,7.6992246E-3],"split_indices":[19,17,6,6,3,0,11,13,0,4,9,12,5,13,15,0,0,0,0,0,0,0,0,0,0,0,0,0,0,0,0],"split_type":[0,0,0,0,0,0,0,0,0,0,0,0,0,0,0,0,0,0,0,0,0,0,0,0,0,0,0,0,0,0,0],"sum_hessian":[1.0849414E3,2.0679652E2,8.781449E2,8.513026E1,1.2166627E2,2.4693147E2,6.3121344E2,7.900971E1,6.1205463E0,3.831022E1,8.335605E1,6.904333E1,1.7788815E2,1.9376219E2,4.3745123E2,1.462826E1,6.4381454E1,4.98636E0,1.1341861E0,2.556986E0,3.575323E1,2.3488499E1,5.986755E1,2.5788686E0,6.6464455E1,3.2650105E1,1.4523805E2,7.1874757E0,1.865747E2,2.8047424E2,1.5697699E2],"tree_param":{"num_deleted":"0","num_feature":"20","num_nodes":"31","size_leaf_vector":"1"}},{"base_weights":[-9.179084E-4,-5.8042627E-2,3.6887755E-3,-5.9101623E-2,8.538446E-2,-3.0202508E-1,1.6215917E-2,8.303193E-3,3.1657124E-1,5.8844807E-3,-3.0730251E-2,1.0091335E-2,-6.3615344E-3,5.705211E-3,-1.9148072E-2,-2.653028E-2,2.23605E-2],"categories":[],"categories_nodes":[],"categories_segments":[],"categories_sizes":[],"default_left":[0,0,0,0,0,0,0,0,0,0,0,0,0,0,0,0,0],"id":39,"left_children":[1,-1,3,5,7,9,11,13,15,-1,-1,-1,-1,-1,-1,-1,-1],"loss_changes":[5.798651E0,0E0,5.5507393E0,1.119984E1,8.376917E0,1.9077171E1,1.2486438E1,1.4684552E1,1.3247243E1,0E0,0E0,0E0,0E0,0E0,0E0,0E0,0E0],"parents":[2147483647,0,0,2,2,3,3,4,4,5,5,6,6,7,7,8,8],"right_children":[2,-1,4,6,8,10,12,14,16,-1,-1,-1,-1,-1,-1,-1,-1],"split_conditions":[1.0641807E-4,-5.8042627E-2,-3.120182E-4,5.3257693E-4,8.32312E-4,7.576328E-1,5.9990934E-4,5.55095E-4,-3.1162268E-3,5.8844807E-3,-3.0730251E-2,1.0091335E-2,-6.3615344E-3,5.705211E-3,-1.9148072E-2,-2.653028E-2,2.23605E-2],"split_indices":[13,0,1,9,13,10,13,13,8,0,0,0,0,0,0,0,0],"split_type":[0,0,0,0,0,0,0,0,0,0,0,0,0,0,0,0,0],"sum_hessian":[1.0833868E3,3.2927768E0,1.080094E3,6.1086584E2,4.6922818E2,1.4386017E2,4.6700568E2,3.526763E2,1.16551865E2,6.1672844E1,8.218733E1,2.0340526E2,2.6360043E2,2.7816632E2,7.450998E1,1.5162599E1,1.0138927E2],"tree_param":{"num_deleted":"0","num_feature":"20","num_nodes":"17","size_leaf_vector":"1"}},{"base_weights":[-9.6893933E-4,1.4756663E-1,-3.598614E-2,-1.2199561E-1,3.1146014E-1,-1.1551449E-1,9.376935E-2,-3.222989E-2,-1.2282733E0,7.077826E-1,1.0202179E-1,-1.7182083E-1,2.8938097E-1,-1.00572E0,1.330501E-1,1.3238887E-2,-2.3119314E-2,-2.5864858E-2,-7.4102305E-2,-4.1818917E-2,4.1971665E-2,3.939759E-2,-8.911877E-3,-3.939274E-3,-2.344052E-2,2.5531167E-2,-3.6396496E-2,4.2462844E-2,-6.717739E-2,5.2794567E-3,7.405474E-2],"categories":[],"categories_nodes":[],"categories_segments":[],"categories_sizes":[],"default_left":[0,0,0,0,0,0,0,0,0,0,0,0,0,0,0,0,0,0,0,0,0,0,0,0,0,0,0,0,0,0,0],"id":40,"left_children":[1,3,5,7,9,11,13,15,17,19,21,23,25,27,29,-1,-1,-1,-1,-1,-1,-1,-1,-1,-1,-1,-1,-1,-1,-1,-1],"loss_changes":[5.640981E0,9.178851E0,9.067094E0,7.8006334E0,1.0631494E1,1.2464788E1,1.4560828E1,9.583272E0,2.9757786E-1,9.731428E0,1.6583776E1,1.3190009E1,1.5419188E1,8.435002E0,1.1815659E1,0E0,0E0,0E0,0E0,0E0,0E0,0E0,0E0,0E0,0E0,0E0,0E0,0E0,0E0,0E0,0E0],"parents":[2147483647,0,0,1,1,2,2,3,3,4,4,5,5,6,6,7,7,8,8,9,9,10,10,11,11,12,12,13,13,14,14],"right_children":[2,4,6,8,10,12,14,16,18,20,22,24,26,28,30,-1,-1,-1,-1,-1,-1,-1,-1,-1,-1,-1,-1,-1,-1,-1,-1],"split_conditions":[6.756538E-1,2.0268465E1,1.1225034E0,1.969697E1,-3.7843604E-3,5.7142857E1,1.657326E-4,1.2479011E-3,5.33838E-4,-3.2926574E-3,2.618342E-4,1.0009476E0,2.7293945E-4,-8.788771E-5,9.230769E-1,1.3238887E-2,-2.3119314E-2,-2.5864858E-2,-7.4102305E-2,-4.1818917E-2,4.1971665E-2,3.939759E-2,-8.911877E-3,-3.939274E-3,-2.344052E-2,2.5531167E-2,-3.6396496E-2,4.2462844E-2,-6.717739E-2,5.2794567E-3,7.405474E-2],"split_indices":[19,17,10,17,3,17,12,13,13,4,9,10,6,4,0,0,0,0,0,0,0,0,0,0,0,0,0,0,0,0,0],"split_type":[0,0,0,0,0,0,0,0,0,0,0,0,0,0,0,0,0,0,0,0,0,0,0,0,0,0,0,0,0,0,0],"sum_hessian":[1.082512E3,2.059026E2,8.7660944E2,7.795028E1,1.2795232E2,5.4356384E2,3.3304556E2,7.3051834E1,4.8984475E0,4.3416107E1,8.453622E1,4.777076E2,6.585625E1,1.0639409E1,3.2240616E2,4.344149E1,2.961034E1,2.0877585E0,2.810689E0,2.9902117E0,4.042589E1,2.3995682E1,6.054053E1,3.6472012E2,1.12987465E2,5.450146E1,1.1354786E1,1.4058976E0,9.233511E0,3.1702637E2,5.3798037E0],"tree_param":{"num_deleted":"0","num_feature":"20","num_nodes":"31","size_leaf_vector":"1"}},{"base_weights":[-9.763704E-4,1.137663E-2,-4.0721932E-1,-1.029667E-2,3.2946357E-1,3.5064772E-1,-7.146959E-1,9.605141E-4,-7.410249E-1,-2.886545E-1,5.8857816E-1,7.1244545E-2,-1.6972178E-1,-3.4111664E-2,-1.2113471E0,-9.753438E-3,1.6945709E-3,3.5534155E-2,-5.222703E-2,2.7582858E-2,-4.4492807E-2,5.292322E-2,1.2694264E-2,-3.1803783E-2,4.2299904E-2,-4.4403832E-2,3.2477994E-2,-6.438746E-2,-9.538649E-3],"categories":[],"categories_nodes":[],"categories_segments":[],"categories_sizes":[],"default_left":[0,0,0,0,0,0,0,0,0,0,0,0,0,0,0,0,0,0,0,0,0,0,0,0,0,0,0,0,0],"id":41,"left_children":[1,3,5,7,9,11,13,15,17,19,21,-1,23,25,27,-1,-1,-1,-1,-1,-1,-1,-1,-1,-1,-1,-1,-1,-1],"loss_changes":[5.4371433E0,7.252857E0,7.7012544E0,8.106991E0,1.0918373E1,5.7753754E0,7.758151E0,6.278056E0,7.3305607E0,1.08441725E1,7.2197094E0,0E0,4.1202116E0,6.860999E0,7.922344E-1,0E0,0E0,0E0,0E0,0E0,0E0,0E0,0E0,0E0,0E0,0E0,0E0,0E0,0E0],"parents":[2147483647,0,0,1,1,2,2,3,3,4,4,5,5,6,6,7,7,8,8,9,9,10,10,12,12,13,13,14,14],"right_children":[2,4,6,8,10,12,14,16,18,20,22,-1,24,26,28,-1,-1,-1,-1,-1,-1,-1,-1,-1,-1,-1,-1,-1,-1],"split_conditions":[2.789125E-3,1.4319351E0,3.3653472E-4,1.4088893E0,3.253648E1,1.282235E0,-3.74236E-3,2.6892597E-4,2.4012158E-4,-1.2562902E-3,-1.537266E-4,7.1244545E-2,4.1025642E-1,-7.3609794E-3,6.404147E-4,-9.753438E-3,1.6945709E-3,3.5534155E-2,-5.222703E-2,2.7582858E-2,-4.4492807E-2,5.292322E-2,1.2694264E-2,-3.1803783E-2,4.2299904E-2,-4.4403832E-2,3.2477994E-2,-6.438746E-2,-9.538649E-3],"split_indices":[16,10,13,10,17,10,3,13,12,5,4,0,0,3,4,0,0,0,0,0,0,0,0,0,0,0,0,0,0],"split_type":[0,0,0,0,0,0,0,0,0,0,0,0,0,0,0,0,0,0,0,0,0,0,0,0,0,0,0,0,0],"sum_hessian":[1.0815358E3,1.0505624E3,3.0973413E1,9.8445294E2,6.610945E1,8.898938E0,2.2074476E1,9.705007E2,1.3952295E1,1.9493555E1,4.66159E1,2.3367522E0,6.5621862E0,9.763619E0,1.2310857E1,1.388771E2,8.3162354E2,2.1806753E0,1.177162E1,8.164408E0,1.1329148E1,1.8491951E1,2.8123947E1,4.753466E0,1.8087201E0,4.208214E0,5.5554056E0,1.1209874E1,1.1009829E0],"tree_param":{"num_deleted":"0","num_feature":"20","num_nodes":"29","size_leaf_vector":"1"}},{"base_weights":[-9.0747117E-4,-5.5524733E-2,3.3791247E-3,1.5288448E-2,-3.8871485E-1,-5.1305997E-3,3.1519422E-1,3.424198E-1,-6.85913E-1,2.5460692E-4,-3.4265928E-2,-1.3795785E-2,2.8168563E-2,-3.0907676E-2,4.3735877E-2,-1.6862651E-3,-5.803746E-2],"categories":[],"categories_nodes":[],"categories_segments":[],"categories_sizes":[],"default_left":[0,0,0,0,0,0,0,0,0,0,0,0,0,0,0,0,0],"id":42,"left_children":[1,-1,3,5,7,9,11,13,15,-1,-1,-1,-1,-1,-1,-1,-1],"loss_changes":[5.149555E0,0E0,5.043076E0,6.4185967E0,7.1526766E0,6.832161E0,9.95687E0,5.5863595E0,7.073761E0,0E0,0E0,0E0,0E0,0E0,0E0,0E0,0E0],"parents":[2147483647,0,0,2,2,3,3,4,4,5,5,6,6,7,7,8,8],"right_children":[2,-1,4,6,8,10,12,14,16,-1,-1,-1,-1,-1,-1,-1,-1],"split_conditions":[1.0641807E-4,-5.5524733E-2,2.789125E-3,1.4319351E0,3.3653472E-4,1.4088893E0,3.253648E1,3.4706367E-4,-3.74236E-3,2.5460692E-4,-3.4265928E-2,-1.3795785E-2,2.8168563E-2,-3.0907676E-2,4.3735877E-2,-1.6862651E-3,-5.803746E-2],"split_indices":[13,0,16,10,13,10,17,3,3,0,0,0,0,0,0,0,0],"split_type":[0,0,0,0,0,0,0,0,0,0,0,0,0,0,0,0,0],"sum_hessian":[1.0808802E3,3.1665068E0,1.0777137E3,1.0468773E3,3.083647E1,9.810645E2,6.581277E1,8.868064E0,2.1968407E1,9.675159E2,1.3548559E1,1.9427776E1,4.6384987E1,3.104484E0,5.7635794E0,9.706942E0,1.2261465E1],"tree_param":{"num_deleted":"0","num_feature":"20","num_nodes":"17","size_leaf_vector":"1"}},{"base_weights":[-9.765845E-4,1.4048499E-1,-3.425846E-2,-1.01309136E-1,3.0956322E-1,-1.9321442E-1,2.8133364E-2,-1.6378785E-2,-1.0581552E0,6.193614E-1,4.3146413E-2,-5.7140654E-1,-4.557137E-2,2.6774853E-1,-7.8271635E-2,3.5943434E-2,-9.55219E-3,-6.3669465E-2,1.4043598E-3,3.734053E-2,-1.5509181E-2,3.8587403E-2,-1.446009E-2,7.615741E-2,-3.2138642E-2,2.4176424E-2,-8.329228E-3,-5.5613022E-2,1.6289843E-2,-1.0003231E-2,6.9460445E-3],"categories":[],"categories_nodes":[],"categories_segments":[],"categories_sizes":[],"default_left":[0,0,0,0,0,0,0,0,0,0,0,0,0,0,0,0,0,0,0,0,0,0,0,0,0,0,0,0,0,0,0],"id":43,"left_children":[1,3,5,7,9,11,13,15,17,19,21,23,25,27,29,-1,-1,-1,-1,-1,-1,-1,-1,-1,-1,-1,-1,-1,-1,-1,-1],"loss_changes":[5.096816E0,8.460747E0,8.696702E0,6.9391184E0,1.0008413E1,1.3773986E1,1.6088837E1,1.0364713E1,1.6636701E0,6.8826694E0,1.6312735E1,1.1339037E1,1.1531316E1,1.5904867E1,1.1592418E1,0E0,0E0,0E0,0E0,0E0,0E0,0E0,0E0,0E0,0E0,0E0,0E0,0E0,0E0,0E0,0E0],"parents":[2147483647,0,0,1,1,2,2,3,3,4,4,5,5,6,6,7,7,8,8,9,9,10,10,11,11,12,12,13,13,14,14],"right_children":[2,4,6,8,10,12,14,16,18,20,22,24,26,28,30,-1,-1,-1,-1,-1,-1,-1,-1,-1,-1,-1,-1,-1,-1,-1,-1],"split_conditions":[6.756538E-1,2.1153847E1,-2.8409823E-4,-3.3852062E-4,-2.7504878E-3,6.282051E-1,-4.893801E-4,5.55095E-4,5.897436E-1,1.6005367E0,2.618342E-4,-2.287188E-2,-1.2251192E-3,1.857091E-4,1.8488253E-4,3.5943434E-2,-9.55219E-3,-6.3669465E-2,1.4043598E-3,3.734053E-2,-1.5509181E-2,3.8587403E-2,-1.446009E-2,7.615741E-2,-3.2138642E-2,2.4176424E-2,-8.329228E-3,-5.5613022E-2,1.6289843E-2,-1.0003231E-2,6.9460445E-3],"split_indices":[19,17,6,6,3,0,11,13,0,14,9,3,5,13,15,0,0,0,0,0,0,0,0,0,0,0,0,0,0,0,0],"split_type":[0,0,0,0,0,0,0,0,0,0,0,0,0,0,0,0,0,0,0,0,0,0,0,0,0,0,0,0,0,0,0],"sum_hessian":[1.0805396E3,2.0518753E2,8.75352E2,8.4601746E1,1.2058579E2,2.4614651E2,6.2920544E2,7.8638824E1,5.962921E0,5.514112E1,6.544467E1,6.830669E1,1.7783983E2,1.930213E2,4.3618417E2,1.4497271E1,6.4141556E1,4.832997E0,1.1299244E0,4.8665253E1,6.475868E0,2.0086737E1,4.5357937E1,1.5803947E0,6.672629E1,3.25458E1,1.4529402E2,7.058372E0,1.8596292E2,2.7951953E2,1.5666463E2],"tree_param":{"num_deleted":"0","num_feature":"20","num_nodes":"31","size_leaf_vector":"1"}},{"base_weights":[-9.080658E-4,-9.242307E-2,4.792608E-2,-4.4972497E-1,4.669622E-2,-9.4181454E-1,6.1283022E-2,3.1282625E-1,-9.536603E-1,1.3698968E-1,-3.5178277E-1,-6.387911E-2,1.3971855E-2,4.904284E-1,3.148215E-2,5.48284E-2,-4.150461E-3,-5.395749E-2,2.0205574E-2,-2.585553E-3,1.89183E-2,-3.3438873E-2,1.3416794E-2,-2.7200693E-2,3.825602E-2,4.035692E-3,-1.6122378E-2],"categories":[],"categories_nodes":[],"categories_segments":[],"categories_sizes":[],"default_left":[0,0,0,0,0,0,0,0,0,0,0,0,0,0,0,0,0,0,0,0,0,0,0,0,0,0,0],"id":44,"left_children":[1,3,5,7,9,11,13,15,17,19,21,-1,-1,23,25,-1,-1,-1,-1,-1,-1,-1,-1,-1,-1,-1,-1],"loss_changes":[4.830983E0,1.8717155E1,9.37605E0,4.0839653E1,9.8211775E0,4.2307873E0,8.891066E0,1.33477745E1,1.1301392E1,1.0138662E1,1.0098295E1,0E0,0E0,1.3246454E1,1.1391575E1,0E0,0E0,0E0,0E0,0E0,0E0,0E0,0E0,0E0,0E0,0E0,0E0],"parents":[2147483647,0,0,1,1,2,2,3,3,4,4,5,5,6,6,7,7,8,8,9,9,10,10,13,13,14,14],"right_children":[2,4,6,8,10,12,14,16,18,20,22,-1,-1,24,26,-1,-1,-1,-1,-1,-1,-1,-1,-1,-1,-1,-1],"split_conditions":[3.974359E-1,-2.792429E-4,6.320442E-1,6.9221836E-1,4.4077134E-4,3.657242E-4,7.687759E-1,5.146567E-4,3.64543E-4,7.075975E-5,3.4997208E-4,-6.387911E-2,1.3971855E-2,-3.541346E-4,2.948711E-4,5.48284E-2,-4.150461E-3,-5.395749E-2,2.0205574E-2,-2.585553E-3,1.89183E-2,-3.3438873E-2,1.3416794E-2,-2.7200693E-2,3.825602E-2,4.035692E-3,-1.6122378E-2],"split_indices":[0,11,10,10,16,12,10,13,8,11,8,0,0,4,11,0,0,0,0,0,0,0,0,0,0,0,0],"split_type":[0,0,0,0,0,0,0,0,0,0,0,0,0,0,0,0,0,0,0,0,0,0,0,0,0,0,0],"sum_hessian":[1.0789939E3,3.7512274E2,7.0387115E2,1.04500374E2,2.7062234E2,8.446944E0,6.954242E2,4.1731625E1,6.276875E1,2.2116388E2,4.9458477E1,6.589202E0,1.8577428E0,4.4152496E1,6.5127167E2,1.3409996E1,2.8321629E1,5.7646126E1,5.122626E0,1.2456695E2,9.659693E1,3.2676376E1,1.67821E1,9.058671E0,3.5093826E1,5.724199E2,7.8851776E1],"tree_param":{"num_deleted":"0","num_feature":"20","num_nodes":"27","size_leaf_vector":"1"}},{"base_weights":[-9.3602086E-4,-5.4108847E-2,3.1722058E-3,-5.621145E-2,8.027902E-2,-2.858482E-1,1.1720441E-2,6.849834E-3,3.014176E-1,-2.0101374E-2,3.7096217E-2,9.294556E-3,-6.2655094E-3,3.1743597E-3,-3.494689E-2,1.9524952E-2,-3.994135E-2],"categories":[],"categories_nodes":[],"categories_segments":[],"categories_sizes":[],"default_left":[0,0,0,0,0,0,0,0,0,0,0,0,0,0,0,0,0],"id":45,"left_children":[1,-1,3,5,7,9,11,13,15,-1,-1,-1,-1,-1,-1,-1,-1],"loss_changes":[4.7911005E0,0E0,4.9256206E0,9.483805E0,7.5974064E0,1.6869308E1,1.1239594E1,1.4129781E1,1.1743977E1,0E0,0E0,0E0,0E0,0E0,0E0,0E0,0E0],"parents":[2147483647,0,0,2,2,3,3,4,4,5,5,6,6,7,7,8,8],"right_children":[2,-1,4,6,8,10,12,14,16,-1,-1,-1,-1,-1,-1,-1,-1],"split_conditions":[1.0641807E-4,-5.4108847E-2,-3.120182E-4,5.230399E-4,8.32312E-4,5.9793816E1,5.9990934E-4,7.899039E-4,2.7140637E-3,-2.0101374E-2,3.7096217E-2,9.294556E-3,-6.2655094E-3,3.1743597E-3,-3.494689E-2,1.9524952E-2,-3.994135E-2],"split_indices":[13,0,1,9,13,17,13,1,13,0,0,0,0,0,0,0,0],"split_type":[0,0,0,0,0,0,0,0,0,0,0,0,0,0,0,0,0],"sum_hessian":[1.076822E3,3.082658E0,1.0737394E3,6.067348E2,4.6700455E2,1.3777907E2,4.6895575E2,3.513647E2,1.1563987E2,1.2433328E2,1.3445783E1,2.0633731E2,2.6261847E2,3.261057E2,2.5258968E1,1.0757512E2,8.0647545E0],"tree_param":{"num_deleted":"0","num_feature":"20","num_nodes":"17","size_leaf_vector":"1"}},{"base_weights":[-9.7487617E-4,1.3701467E-1,-3.327695E-2,-3.2748222E-1,2.1572253E-1,-1.8369117E-1,2.8567977E-2,-7.8726465E-1,5.3933656E-1,9.7055686E-1,4.208492E-2,-5.3955615E-1,-4.29986E-2,-3.2245353E-2,3.4267774E-1,-4.7731165E-2,5.1256638E-2,5.104668E-2,-3.091743E-2,5.591416E-2,-4.4747137E-2,-9.784232E-3,1.2568078E-2,2.1412317E-2,-3.6125217E-2,1.028291E-2,-1.6197985E-2,2.4264997E-3,-1.5991922E-2,3.410309E-2,-7.4483077E-3],"categories":[],"categories_nodes":[],"categories_segments":[],"categories_sizes":[],"default_left":[0,0,0,0,0,0,0,0,0,0,0,0,0,0,0,0,0,0,0,0,0,0,0,0,0,0,0,0,0,0,0],"id":46,"left_children":[1,3,5,7,9,11,13,15,17,19,21,23,25,27,29,-1,-1,-1,-1,-1,-1,-1,-1,-1,-1,-1,-1,-1,-1,-1,-1],"loss_changes":[4.8050957E0,7.5465965E0,8.1309185E0,1.2391539E1,2.2956356E1,1.2726207E1,1.1851705E1,7.0529585E0,6.7643065E0,1.0031204E1,7.1992574E0,1.3068754E1,1.2892114E1,1.2100773E1,1.6892178E1,0E0,0E0,0E0,0E0,0E0,0E0,0E0,0E0,0E0,0E0,0E0,0E0,0E0,0E0,0E0,0E0],"parents":[2147483647,0,0,1,1,2,2,3,3,4,4,5,5,6,6,7,7,8,8,9,9,10,10,11,11,12,12,13,13,14,14],"right_children":[2,4,6,8,10,12,14,16,18,20,22,24,26,28,30,-1,-1,-1,-1,-1,-1,-1,-1,-1,-1,-1,-1,-1,-1,-1,-1],"split_conditions":[6.756538E-1,3.624417E-4,-1.0027739E-3,-1.73872E-4,5.55095E-4,6.1538464E-1,8.0961175E-4,6.685854E-4,2.5887642E-4,3.1404378E0,2.149878E1,2.5943664E-4,8.4615386E-1,5.094633E-4,1.1842538E-3,-4.7731165E-2,5.1256638E-2,5.104668E-2,-3.091743E-2,5.591416E-2,-4.4747137E-2,-9.784232E-3,1.2568078E-2,2.1412317E-2,-3.6125217E-2,1.028291E-2,-1.6197985E-2,2.4264997E-3,-1.5991922E-2,3.410309E-2,-7.4483077E-3],"split_indices":[19,13,8,5,13,0,13,9,9,14,17,12,0,13,13,0,0,0,0,0,0,0,0,0,0,0,0,0,0,0,0],"split_type":[0,0,0,0,0,0,0,0,0,0,0,0,0,0,0,0,0,0,0,0,0,0,0,0,0,0,0,0,0,0,0],"sum_hessian":[1.0759937E3,2.034869E2,8.725068E2,2.9026339E1,1.7446056E2,2.5364406E2,6.188627E2,1.9026161E1,1.0000175E1,3.1768322E1,1.4269225E2,7.10632E1,1.8258086E2,5.1923364E2,9.962906E1,1.7851059E1,1.1751037E0,7.1456923E0,2.8544836E0,2.9808384E1,1.9599394E0,6.682921E1,7.586303E1,1.1084579E1,5.9978626E1,9.7000916E1,8.557993E1,4.0602573E2,1.13207886E2,5.871235E1,4.0916714E1],"tree_param":{"num_deleted":"0","num_feature":"20","num_nodes":"31","size_leaf_vector":"1"}},{"base_weights":[-8.998228E-4,-5.972776E-3,8.3940643E-1,1.2348207E-1,-4.0211745E-2,-2.178305E-2,6.34874E-2,-3.544092E-1,2.0495237E-1,-1.9416282E-1,2.190028E-2,-3.9479658E-2,2.5726065E-2,4.6846345E-2,1.9046873E-3,-2.5376705E-2,-3.4529031E-3,1.1313888E-2,-4.17711E-3],"categories":[],"categories_nodes":[],"categories_segments":[],"categories_sizes":[],"default_left":[0,0,0,0,0,0,0,0,0,0,0,0,0,0,0,0,0,0,0],"id":47,"left_children":[1,3,5,7,9,-1,-1,11,13,15,17,-1,-1,-1,-1,-1,-1,-1,-1],"loss_changes":[4.5888677E0,4.746956E0,4.097748E0,8.794615E0,8.101792E0,0E0,0E0,1.28829975E1,2.3417555E1,9.512757E0,1.30413265E1,0E0,0E0,0E0,0E0,0E0,0E0,0E0,0E0],"parents":[2147483647,0,0,1,1,2,2,3,3,4,4,7,7,8,8,9,9,10,10],"right_children":[2,4,6,8,10,-1,-1,12,14,16,18,-1,-1,-1,-1,-1,-1,-1,-1],"split_conditions":[3.545533E0,7.009996E-1,9.2165005E-1,3.624417E-4,-1.0027739E-3,-2.178305E-2,6.34874E-2,-1.73872E-4,5.55095E-4,6.1538464E-1,-1.7153639E-4,-3.9479658E-2,2.5726065E-2,4.6846345E-2,1.9046873E-3,-2.5376705E-2,-3.4529031E-3,1.1313888E-2,-4.17711E-3],"split_indices":[19,19,10,13,8,0,0,5,13,0,4,0,0,0,0,0,0,0,0],"split_type":[0,0,0,0,0,0,0,0,0,0,0,0,0,0,0,0,0,0,0],"sum_hessian":[1.0743068E3,1.0688469E3,5.459768E0,2.2301987E2,8.458271E2,1.3745946E0,4.0851736E0,3.1994614E1,1.9102525E2,2.4254018E2,6.032869E2,2.1378824E1,1.0615789E1,3.4605026E1,1.5642023E2,6.8328705E1,1.7421147E2,2.0492944E2,3.9835748E2],"tree_param":{"num_deleted":"0","num_feature":"20","num_nodes":"19","size_leaf_vector":"1"}},{"base_weights":[-8.0572424E-4,-5.309054E-2,3.1751075E-3,2.8301813E-2,-1.6270317E-1,8.893592E-3,7.774548E-1,3.153071E-1,-2.984292E-1,5.184575E-3,-5.130461E-3,-3.4751575E-2,5.6045946E-2,-9.113442E-3,5.9348952E-2,-4.3753665E-2,-1.9028668E-3],"categories":[],"categories_nodes":[],"categories_segments":[],"categories_sizes":[],"default_left":[0,0,0,0,0,0,0,0,0,0,0,0,0,0,0,0,0],"id":48,"left_children":[1,-1,3,5,7,9,11,13,15,-1,-1,-1,-1,-1,-1,-1,-1],"loss_changes":[4.5396605E0,0E0,4.468486E0,1.3528955E1,9.244394E0,9.613274E0,1.2662889E1,1.3955091E1,1.6536552E1,0E0,0E0,0E0,0E0,0E0,0E0,0E0,0E0],"parents":[2147483647,0,0,2,2,3,3,4,4,5,5,6,6,7,7,8,8],"right_children":[2,-1,4,6,8,10,12,14,16,-1,-1,-1,-1,-1,-1,-1,-1],"split_conditions":[1.0641807E-4,-5.309054E-2,2.948711E-4,8.7659666E-4,-5.603222E-4,5.55095E-4,6.506535E-4,-6.7426864E-4,5.893383E-4,5.184575E-3,-5.130461E-3,-3.4751575E-2,5.6045946E-2,-9.113442E-3,5.9348952E-2,-4.3753665E-2,-1.9028668E-3],"split_indices":[13,0,11,2,3,13,13,4,3,0,0,0,0,0,0,0,0],"split_type":[0,0,0,0,0,0,0,0,0,0,0,0,0,0,0,0,0],"sum_hessian":[1.0730128E3,3.0175548E0,1.0699952E3,9.2995764E2,1.400376E2,9.0746E2,2.2497591E1,3.0676308E1,1.0936128E2,4.90508E2,4.1695203E2,4.0615354E0,1.8436056E1,2.0032223E1,1.0644085E1,3.3284786E1,7.60765E1],"tree_param":{"num_deleted":"0","num_feature":"20","num_nodes":"17","size_leaf_vector":"1"}},{"base_weights":[-7.8570255E-4,2.9454067E-1,-1.4329104E-2,1.5895585E-2,8.6740375E-1,-2.0995338E-2,8.930645E-1,3.8722607E-1,-6.8434614E-1,1.2470293E0,-5.9569504E-2,-1.1235702E0,-8.3076935E-3,9.315898E-2,-2.9645916E-2,-3.5931796E-3,8.573935E-2,-5.0612587E-2,4.757496E-2,-1.3714944E-2,7.0177756E-2,1.26410965E-2,-6.7249715E-2,-8.784118E-4,6.7076504E-2,-3.836653E-2,6.310719E-2],"categories":[],"categories_nodes":[],"categories_segments":[],"categories_sizes":[],"default_left":[0,0,0,0,0,0,0,0,0,0,0,0,0,0,0,0,0,0,0,0,0,0,0,0,0,0,0],"id":49,"left_children":[1,3,5,7,9,11,13,15,17,19,-1,21,23,-1,25,-1,-1,-1,-1,-1,-1,-1,-1,-1,-1,-1,-1],"loss_changes":[4.2988124E0,7.508921E0,6.234566E0,8.773959E0,1.3524322E1,1.42746E1,6.784159E0,1.3545525E1,7.239718E0,3.5982037E0,0E0,3.8779907E0,1.2654662E1,0E0,5.5778937E0,0E0,0E0,0E0,0E0,0E0,0E0,0E0,0E0,0E0,0E0,0E0,0E0],"parents":[2147483647,0,0,1,1,2,2,3,3,4,4,5,5,6,6,7,7,8,8,9,9,11,11,12,12,14,14],"right_children":[2,4,6,8,10,12,14,16,18,20,-1,22,24,-1,26,-1,-1,-1,-1,-1,-1,-1,-1,-1,-1,-1,-1],"split_conditions":[-4.1296394E-3,2.9645868E1,3.7237583E-3,1.2725772E0,8.5897434E-1,-3.2926574E-3,-1.0655752E-3,2.158325E-3,1.5129861E0,9.030766E-1,-5.9569504E-2,4.4745663E-3,2.5288684E-3,9.315898E-2,1.2381824E-4,-3.5931796E-3,8.573935E-2,-5.0612587E-2,4.757496E-2,-1.3714944E-2,7.0177756E-2,1.26410965E-2,-6.7249715E-2,-8.784118E-4,6.7076504E-2,-3.836653E-2,6.310719E-2],"split_indices":[1,17,13,10,0,4,1,9,10,10,0,14,12,0,7,0,0,0,0,0,0,0,0,0,0,0,0],"split_type":[0,0,0,0,0,0,0,0,0,0,0,0,0,0,0,0,0,0,0,0,0,0,0,0,0,0,0],"sum_hessian":[1.0727222E3,4.612724E1,1.026595E3,3.1724123E1,1.4403114E1,1.02007776E3,6.5172133E0,2.1022915E1,1.0701209E1,1.249367E1,1.9094442E0,1.0608714E1,1.009469E3,2.6801367E0,3.8370767E0,1.6323784E1,4.699131E0,9.231882E0,1.4693273E0,1.0953336E0,1.1398337E1,1.4504968E0,9.158216E0,1.00357104E3,5.8979993E0,2.7007759E0,1.1363008E0],"tree_param":{"num_deleted":"0","num_feature":"20","num_nodes":"27","size_leaf_vector":"1"}},{"base_weights":[-5.596899E-4,-5.198689E-2,3.2738552E-3,3.6244094E-1,-8.222545E-3,1.6573612E-1,1.2962663E0,-5.3163415E-1,7.0505985E-3,2.0275347E-2,-4.636613E-2,8.543269E-2,-5.852635E-3,-4.218251E-3,-6.4347826E-2,2.9884555E-5,5.7263505E-2],"categories":[],"categories_nodes":[],"categories_segments":[],"categories_sizes":[],"default_left":[0,0,0,0,0,0,0,0,0,0,0,0,0,0,0,0,0],"id":50,"left_children":[1,-1,3,5,7,9,11,13,15,-1,-1,-1,-1,-1,-1,-1,-1],"loss_changes":[4.279153E0,0E0,4.422606E0,5.88727E0,8.3027315E0,7.8680916E0,3.4833784E0,9.83955E0,7.415286E0,0E0,0E0,0E0,0E0,0E0,0E0,0E0,0E0],"parents":[2147483647,0,0,2,2,3,3,4,4,5,5,6,6,7,7,8,8],"right_children":[2,-1,4,6,8,10,12,14,16,-1,-1,-1,-1,-1,-1,-1,-1],"split_conditions":[1.0641807E-4,-5.198689E-2,1.9143577E-4,9.8689955E-1,4.3367347E-1,2.6923078E-1,1.3716119E-4,3.6471754E-1,3.545533E0,2.0275347E-2,-4.636613E-2,8.543269E-2,-5.852635E-3,-4.218251E-3,-6.4347826E-2,2.9884555E-5,5.7263505E-2],"split_indices":[13,0,9,10,10,0,4,10,19,0,0,0,0,0,0,0,0],"split_type":[0,0,0,0,0,0,0,0,0,0,0,0,0,0,0,0,0],"sum_hessian":[1.0723013E3,2.9480119E0,1.0693531E3,3.221997E1,1.0371332E3,2.7586514E1,4.6334567E0,2.844692E1,1.00868634E3,2.3139668E1,4.446847E0,3.4250944E0,1.2083621E0,1.8565144E1,9.881778E0,1.0039949E3,4.6914225E0],"tree_param":{"num_deleted":"0","num_feature":"20","num_nodes":"17","size_leaf_vector":"1"}},{"base_weights":[-5.46348E-4,1.0292031E-2,-3.5947543E-1,5.7314914E-2,5.1942174E-3,3.4267887E-1,-6.487183E-1,-5.302232E-2,1.0571738E-1,6.8086796E-2,-1.5458027E-1,-1.4040605E-2,-1.1088219E0,-5.246003E-3,1.6397161E-2,-2.086111E-3,1.5926393E-2,-4.5595948E-2,2.410654E-2,-4.158893E-2,3.114814E-2,-6.4642936E-2,-2.4136892E-2],"categories":[],"categories_nodes":[],"categories_segments":[],"categories_sizes":[],"default_left":[0,0,0,0,0,0,0,0,0,0,0,0,0,0,0,0,0,0,0,0,0,0,0],"id":51,"left_children":[1,3,5,-1,7,9,11,13,15,-1,17,19,21,-1,-1,-1,-1,-1,-1,-1,-1,-1,-1],"loss_changes":[4.1778965E0,6.0314426E0,6.6154532E0,0E0,6.0851803E0,5.1959667E0,6.595854E0,1.30545225E1,1.1978191E1,0E0,4.0610623E0,6.0021944E0,8.867512E-1,0E0,0E0,0E0,0E0,0E0,0E0,0E0,0E0,0E0,0E0],"parents":[2147483647,0,0,1,1,2,2,4,4,5,5,6,6,7,7,8,8,10,10,11,11,12,12],"right_children":[2,4,6,-1,8,10,12,14,16,-1,18,20,22,-1,-1,-1,-1,-1,-1,-1,-1,-1,-1],"split_conditions":[2.789125E-3,-8.412918E-3,3.3653472E-4,5.7314914E-2,1.1225034E0,1.282235E0,-3.74236E-3,5.7142857E1,6.7948717E-1,6.8086796E-2,2.503574E-4,-7.3609794E-3,4.453705E0,-5.246003E-3,1.6397161E-2,-2.086111E-3,1.5926393E-2,-4.5595948E-2,2.410654E-2,-4.158893E-2,3.114814E-2,-6.4642936E-2,-2.4136892E-2],"split_indices":[16,11,13,0,10,10,3,17,0,0,12,3,14,0,0,0,0,0,0,0,0,0,0],"split_type":[0,0,0,0,0,0,0,0,0,0,0,0,0,0,0,0,0,0,0,0,0,0,0],"sum_hessian":[1.0720005E3,1.0415216E3,3.0478912E1,3.6528502E0,1.0378688E3,8.838407E0,2.1640505E1,6.575378E2,3.8033096E2,2.3283412E0,6.5100656E0,9.527947E0,1.2112558E1,5.7934064E2,7.819716E1,2.2514775E2,1.551832E2,2.7759576E0,3.734108E0,4.038216E0,5.489732E0,8.537868E0,3.57469E0],"tree_param":{"num_deleted":"0","num_feature":"20","num_nodes":"23","size_leaf_vector":"1"}},{"base_weights":[-4.903256E-4,-3.895723E-2,9.846855E-2,4.0565625E-2,-3.0727816E-1,-4.9843475E-2,3.3669716E-1,-4.910575E-2,3.1203952E-1,-4.4080362E-1,2.1800599E-1,8.233786E-2,-7.028357E-1,4.183152E-1,-7.515427E-1,-6.9134547E-3,1.3201942E-2,2.6310557E-2,-2.5937635E-2,-1.0947822E-2,-4.5833927E-2,-6.1081626E-2,2.6343761E-2,-5.22683E-3,1.6337441E-2,-5.9495755E-2,1.6800879E-2,-3.356672E-2,